digraph Tree {
node [shape=box] ;
0 [label="X[30] <= 0.5\ngini = 0.374\nsamples = 36177\nvalue = [27174, 9003]"] ;
1 [label="X[2] <= 0.77\ngini = 0.127\nsamples = 19306\nvalue = [17995, 1311]"] ;
0 -> 1 [labeldistance=2.5, labelangle=45, headlabel="True"] ;
2 [label="X[1] <= 0.767\ngini = 0.097\nsamples = 18946\nvalue = [17981, 965]"] ;
1 -> 2 ;
3 [label="X[3] <= 0.92\ngini = 0.048\nsamples = 15065\nvalue = [14693, 372]"] ;
2 -> 3 ;
4 [label="X[4] <= 0.403\ngini = 0.045\nsamples = 15001\nvalue = [14658, 343]"] ;
3 -> 4 ;
5 [label="X[0] <= 0.226\ngini = 0.027\nsamples = 12229\nvalue = [12061, 168]"] ;
4 -> 5 ;
6 [label="X[29] <= 0.5\ngini = 0.007\nsamples = 7088\nvalue = [7063, 25]"] ;
5 -> 6 ;
7 [label="X[0] <= 0.158\ngini = 0.006\nsamples = 7076\nvalue = [7054, 22]"] ;
6 -> 7 ;
8 [label="X[1] <= 0.633\ngini = 0.003\nsamples = 5649\nvalue = [5641, 8]"] ;
7 -> 8 ;
9 [label="X[45] <= 0.5\ngini = 0.002\nsamples = 5291\nvalue = [5286, 5]"] ;
8 -> 9 ;
10 [label="X[44] <= 0.5\ngini = 0.002\nsamples = 5211\nvalue = [5207, 4]"] ;
9 -> 10 ;
11 [label="X[14] <= 0.5\ngini = 0.001\nsamples = 5041\nvalue = [5038, 3]"] ;
10 -> 11 ;
12 [label="X[27] <= 0.5\ngini = 0.001\nsamples = 4866\nvalue = [4864, 2]"] ;
11 -> 12 ;
13 [label="gini = 0.0\nsamples = 2913\nvalue = [2913, 0]"] ;
12 -> 13 ;
14 [label="X[60] <= 0.5\ngini = 0.002\nsamples = 1953\nvalue = [1951, 2]"] ;
12 -> 14 ;
15 [label="X[4] <= 0.321\ngini = 0.004\nsamples = 898\nvalue = [896, 2]"] ;
14 -> 15 ;
16 [label="X[4] <= 0.306\ngini = 0.01\nsamples = 410\nvalue = [408, 2]"] ;
15 -> 16 ;
17 [label="X[50] <= 0.5\ngini = 0.005\nsamples = 400\nvalue = [399, 1]"] ;
16 -> 17 ;
18 [label="gini = 0.0\nsamples = 330\nvalue = [330, 0]"] ;
17 -> 18 ;
19 [label="X[46] <= 0.5\ngini = 0.028\nsamples = 70\nvalue = [69, 1]"] ;
17 -> 19 ;
20 [label="gini = 0.0\nsamples = 52\nvalue = [52, 0]"] ;
19 -> 20 ;
21 [label="X[4] <= 0.24\ngini = 0.105\nsamples = 18\nvalue = [17, 1]"] ;
19 -> 21 ;
22 [label="gini = 0.0\nsamples = 6\nvalue = [6, 0]"] ;
21 -> 22 ;
23 [label="X[4] <= 0.27\ngini = 0.153\nsamples = 12\nvalue = [11, 1]"] ;
21 -> 23 ;
24 [label="X[0] <= 0.055\ngini = 0.278\nsamples = 6\nvalue = [5, 1]"] ;
23 -> 24 ;
25 [label="gini = 0.0\nsamples = 2\nvalue = [2, 0]"] ;
24 -> 25 ;
26 [label="X[0] <= 0.075\ngini = 0.375\nsamples = 4\nvalue = [3, 1]"] ;
24 -> 26 ;
27 [label="gini = 0.5\nsamples = 2\nvalue = [1, 1]"] ;
26 -> 27 ;
28 [label="gini = 0.0\nsamples = 2\nvalue = [2, 0]"] ;
26 -> 28 ;
29 [label="gini = 0.0\nsamples = 6\nvalue = [6, 0]"] ;
23 -> 29 ;
30 [label="X[42] <= 0.5\ngini = 0.18\nsamples = 10\nvalue = [9, 1]"] ;
16 -> 30 ;
31 [label="gini = 0.0\nsamples = 6\nvalue = [6, 0]"] ;
30 -> 31 ;
32 [label="X[0] <= 0.062\ngini = 0.375\nsamples = 4\nvalue = [3, 1]"] ;
30 -> 32 ;
33 [label="gini = 0.0\nsamples = 2\nvalue = [2, 0]"] ;
32 -> 33 ;
34 [label="X[0] <= 0.075\ngini = 0.5\nsamples = 2\nvalue = [1, 1]"] ;
32 -> 34 ;
35 [label="gini = 0.0\nsamples = 1\nvalue = [0, 1]"] ;
34 -> 35 ;
36 [label="gini = 0.0\nsamples = 1\nvalue = [1, 0]"] ;
34 -> 36 ;
37 [label="gini = 0.0\nsamples = 488\nvalue = [488, 0]"] ;
15 -> 37 ;
38 [label="gini = 0.0\nsamples = 1055\nvalue = [1055, 0]"] ;
14 -> 38 ;
39 [label="X[57] <= 0.5\ngini = 0.011\nsamples = 175\nvalue = [174, 1]"] ;
11 -> 39 ;
40 [label="gini = 0.0\nsamples = 152\nvalue = [152, 0]"] ;
39 -> 40 ;
41 [label="X[42] <= 0.5\ngini = 0.083\nsamples = 23\nvalue = [22, 1]"] ;
39 -> 41 ;
42 [label="gini = 0.0\nsamples = 13\nvalue = [13, 0]"] ;
41 -> 42 ;
43 [label="X[4] <= 0.332\ngini = 0.18\nsamples = 10\nvalue = [9, 1]"] ;
41 -> 43 ;
44 [label="gini = 0.0\nsamples = 6\nvalue = [6, 0]"] ;
43 -> 44 ;
45 [label="X[4] <= 0.362\ngini = 0.375\nsamples = 4\nvalue = [3, 1]"] ;
43 -> 45 ;
46 [label="gini = 0.0\nsamples = 1\nvalue = [0, 1]"] ;
45 -> 46 ;
47 [label="gini = 0.0\nsamples = 3\nvalue = [3, 0]"] ;
45 -> 47 ;
48 [label="X[13] <= 0.5\ngini = 0.012\nsamples = 170\nvalue = [169, 1]"] ;
10 -> 48 ;
49 [label="gini = 0.0\nsamples = 152\nvalue = [152, 0]"] ;
48 -> 49 ;
50 [label="X[0] <= 0.089\ngini = 0.105\nsamples = 18\nvalue = [17, 1]"] ;
48 -> 50 ;
51 [label="gini = 0.0\nsamples = 16\nvalue = [16, 0]"] ;
50 -> 51 ;
52 [label="X[50] <= 0.5\ngini = 0.5\nsamples = 2\nvalue = [1, 1]"] ;
50 -> 52 ;
53 [label="gini = 0.0\nsamples = 1\nvalue = [0, 1]"] ;
52 -> 53 ;
54 [label="gini = 0.0\nsamples = 1\nvalue = [1, 0]"] ;
52 -> 54 ;
55 [label="X[6] <= 0.5\ngini = 0.025\nsamples = 80\nvalue = [79, 1]"] ;
9 -> 55 ;
56 [label="gini = 0.0\nsamples = 57\nvalue = [57, 0]"] ;
55 -> 56 ;
57 [label="X[0] <= 0.089\ngini = 0.083\nsamples = 23\nvalue = [22, 1]"] ;
55 -> 57 ;
58 [label="X[0] <= 0.075\ngini = 0.198\nsamples = 9\nvalue = [8, 1]"] ;
57 -> 58 ;
59 [label="gini = 0.0\nsamples = 8\nvalue = [8, 0]"] ;
58 -> 59 ;
60 [label="gini = 0.0\nsamples = 1\nvalue = [0, 1]"] ;
58 -> 60 ;
61 [label="gini = 0.0\nsamples = 14\nvalue = [14, 0]"] ;
57 -> 61 ;
62 [label="X[0] <= 0.13\ngini = 0.017\nsamples = 358\nvalue = [355, 3]"] ;
8 -> 62 ;
63 [label="X[35] <= 0.5\ngini = 0.007\nsamples = 286\nvalue = [285, 1]"] ;
62 -> 63 ;
64 [label="gini = 0.0\nsamples = 206\nvalue = [206, 0]"] ;
63 -> 64 ;
65 [label="X[61] <= 0.5\ngini = 0.025\nsamples = 80\nvalue = [79, 1]"] ;
63 -> 65 ;
66 [label="gini = 0.0\nsamples = 70\nvalue = [70, 0]"] ;
65 -> 66 ;
67 [label="X[0] <= 0.089\ngini = 0.18\nsamples = 10\nvalue = [9, 1]"] ;
65 -> 67 ;
68 [label="gini = 0.0\nsamples = 7\nvalue = [7, 0]"] ;
67 -> 68 ;
69 [label="X[50] <= 0.5\ngini = 0.444\nsamples = 3\nvalue = [2, 1]"] ;
67 -> 69 ;
70 [label="gini = 0.0\nsamples = 2\nvalue = [2, 0]"] ;
69 -> 70 ;
71 [label="gini = 0.0\nsamples = 1\nvalue = [0, 1]"] ;
69 -> 71 ;
72 [label="X[53] <= 0.5\ngini = 0.054\nsamples = 72\nvalue = [70, 2]"] ;
62 -> 72 ;
73 [label="X[38] <= 0.5\ngini = 0.031\nsamples = 64\nvalue = [63, 1]"] ;
72 -> 73 ;
74 [label="gini = 0.0\nsamples = 55\nvalue = [55, 0]"] ;
73 -> 74 ;
75 [label="X[1] <= 0.7\ngini = 0.198\nsamples = 9\nvalue = [8, 1]"] ;
73 -> 75 ;
76 [label="gini = 0.0\nsamples = 6\nvalue = [6, 0]"] ;
75 -> 76 ;
77 [label="X[60] <= 0.5\ngini = 0.444\nsamples = 3\nvalue = [2, 1]"] ;
75 -> 77 ;
78 [label="gini = 0.0\nsamples = 1\nvalue = [1, 0]"] ;
77 -> 78 ;
79 [label="gini = 0.5\nsamples = 2\nvalue = [1, 1]"] ;
77 -> 79 ;
80 [label="X[37] <= 0.5\ngini = 0.219\nsamples = 8\nvalue = [7, 1]"] ;
72 -> 80 ;
81 [label="gini = 0.0\nsamples = 6\nvalue = [6, 0]"] ;
80 -> 81 ;
82 [label="X[1] <= 0.7\ngini = 0.5\nsamples = 2\nvalue = [1, 1]"] ;
80 -> 82 ;
83 [label="gini = 0.0\nsamples = 1\nvalue = [0, 1]"] ;
82 -> 83 ;
84 [label="gini = 0.0\nsamples = 1\nvalue = [1, 0]"] ;
82 -> 84 ;
85 [label="X[2] <= 0.735\ngini = 0.019\nsamples = 1427\nvalue = [1413, 14]"] ;
7 -> 85 ;
86 [label="X[34] <= 0.5\ngini = 0.018\nsamples = 1424\nvalue = [1411, 13]"] ;
85 -> 86 ;
87 [label="X[8] <= 0.5\ngini = 0.017\nsamples = 1415\nvalue = [1403, 12]"] ;
86 -> 87 ;
88 [label="X[37] <= 0.5\ngini = 0.016\nsamples = 1406\nvalue = [1395, 11]"] ;
87 -> 88 ;
89 [label="X[17] <= 0.5\ngini = 0.01\nsamples = 1219\nvalue = [1213, 6]"] ;
88 -> 89 ;
90 [label="X[38] <= 0.5\ngini = 0.008\nsamples = 1204\nvalue = [1199, 5]"] ;
89 -> 90 ;
91 [label="X[33] <= 0.5\ngini = 0.005\nsamples = 1121\nvalue = [1118, 3]"] ;
90 -> 91 ;
92 [label="X[10] <= 0.5\ngini = 0.002\nsamples = 1007\nvalue = [1006, 1]"] ;
91 -> 92 ;
93 [label="gini = 0.0\nsamples = 964\nvalue = [964, 0]"] ;
92 -> 93 ;
94 [label="X[19] <= 0.5\ngini = 0.045\nsamples = 43\nvalue = [42, 1]"] ;
92 -> 94 ;
95 [label="gini = 0.0\nsamples = 41\nvalue = [41, 0]"] ;
94 -> 95 ;
96 [label="X[44] <= 0.5\ngini = 0.5\nsamples = 2\nvalue = [1, 1]"] ;
94 -> 96 ;
97 [label="gini = 0.0\nsamples = 1\nvalue = [1, 0]"] ;
96 -> 97 ;
98 [label="gini = 0.0\nsamples = 1\nvalue = [0, 1]"] ;
96 -> 98 ;
99 [label="X[45] <= 0.5\ngini = 0.034\nsamples = 114\nvalue = [112, 2]"] ;
91 -> 99 ;
100 [label="X[6] <= 0.5\ngini = 0.018\nsamples = 110\nvalue = [109, 1]"] ;
99 -> 100 ;
101 [label="gini = 0.0\nsamples = 105\nvalue = [105, 0]"] ;
100 -> 101 ;
102 [label="X[27] <= 0.5\ngini = 0.32\nsamples = 5\nvalue = [4, 1]"] ;
100 -> 102 ;
103 [label="X[4] <= 0.327\ngini = 0.5\nsamples = 2\nvalue = [1, 1]"] ;
102 -> 103 ;
104 [label="gini = 0.0\nsamples = 1\nvalue = [1, 0]"] ;
103 -> 104 ;
105 [label="gini = 0.0\nsamples = 1\nvalue = [0, 1]"] ;
103 -> 105 ;
106 [label="gini = 0.0\nsamples = 3\nvalue = [3, 0]"] ;
102 -> 106 ;
107 [label="X[60] <= 0.5\ngini = 0.375\nsamples = 4\nvalue = [3, 1]"] ;
99 -> 107 ;
108 [label="gini = 0.0\nsamples = 1\nvalue = [0, 1]"] ;
107 -> 108 ;
109 [label="gini = 0.0\nsamples = 3\nvalue = [3, 0]"] ;
107 -> 109 ;
110 [label="X[13] <= 0.5\ngini = 0.047\nsamples = 83\nvalue = [81, 2]"] ;
90 -> 110 ;
111 [label="X[27] <= 0.5\ngini = 0.025\nsamples = 80\nvalue = [79, 1]"] ;
110 -> 111 ;
112 [label="gini = 0.0\nsamples = 45\nvalue = [45, 0]"] ;
111 -> 112 ;
113 [label="X[0] <= 0.199\ngini = 0.056\nsamples = 35\nvalue = [34, 1]"] ;
111 -> 113 ;
114 [label="X[0] <= 0.185\ngini = 0.1\nsamples = 19\nvalue = [18, 1]"] ;
113 -> 114 ;
115 [label="gini = 0.0\nsamples = 11\nvalue = [11, 0]"] ;
114 -> 115 ;
116 [label="X[61] <= 0.5\ngini = 0.219\nsamples = 8\nvalue = [7, 1]"] ;
114 -> 116 ;
117 [label="X[28] <= 0.5\ngini = 0.444\nsamples = 3\nvalue = [2, 1]"] ;
116 -> 117 ;
118 [label="gini = 0.5\nsamples = 2\nvalue = [1, 1]"] ;
117 -> 118 ;
119 [label="gini = 0.0\nsamples = 1\nvalue = [1, 0]"] ;
117 -> 119 ;
120 [label="gini = 0.0\nsamples = 5\nvalue = [5, 0]"] ;
116 -> 120 ;
121 [label="gini = 0.0\nsamples = 16\nvalue = [16, 0]"] ;
113 -> 121 ;
122 [label="X[28] <= 0.5\ngini = 0.444\nsamples = 3\nvalue = [2, 1]"] ;
110 -> 122 ;
123 [label="gini = 0.0\nsamples = 2\nvalue = [2, 0]"] ;
122 -> 123 ;
124 [label="gini = 0.0\nsamples = 1\nvalue = [0, 1]"] ;
122 -> 124 ;
125 [label="X[39] <= 0.5\ngini = 0.124\nsamples = 15\nvalue = [14, 1]"] ;
89 -> 125 ;
126 [label="gini = 0.0\nsamples = 13\nvalue = [13, 0]"] ;
125 -> 126 ;
127 [label="X[51] <= 0.5\ngini = 0.5\nsamples = 2\nvalue = [1, 1]"] ;
125 -> 127 ;
128 [label="gini = 0.0\nsamples = 1\nvalue = [0, 1]"] ;
127 -> 128 ;
129 [label="gini = 0.0\nsamples = 1\nvalue = [1, 0]"] ;
127 -> 129 ;
130 [label="X[5] <= 0.5\ngini = 0.052\nsamples = 187\nvalue = [182, 5]"] ;
88 -> 130 ;
131 [label="X[1] <= 0.567\ngini = 0.042\nsamples = 185\nvalue = [181, 4]"] ;
130 -> 131 ;
132 [label="X[0] <= 0.212\ngini = 0.015\nsamples = 129\nvalue = [128, 1]"] ;
131 -> 132 ;
133 [label="gini = 0.0\nsamples = 108\nvalue = [108, 0]"] ;
132 -> 133 ;
134 [label="X[32] <= 0.5\ngini = 0.091\nsamples = 21\nvalue = [20, 1]"] ;
132 -> 134 ;
135 [label="gini = 0.0\nsamples = 8\nvalue = [8, 0]"] ;
134 -> 135 ;
136 [label="X[50] <= 0.5\ngini = 0.142\nsamples = 13\nvalue = [12, 1]"] ;
134 -> 136 ;
137 [label="gini = 0.0\nsamples = 5\nvalue = [5, 0]"] ;
136 -> 137 ;
138 [label="X[4] <= 0.372\ngini = 0.219\nsamples = 8\nvalue = [7, 1]"] ;
136 -> 138 ;
139 [label="gini = 0.0\nsamples = 3\nvalue = [3, 0]"] ;
138 -> 139 ;
140 [label="X[87] <= 0.5\ngini = 0.32\nsamples = 5\nvalue = [4, 1]"] ;
138 -> 140 ;
141 [label="X[7] <= 0.5\ngini = 0.375\nsamples = 4\nvalue = [3, 1]"] ;
140 -> 141 ;
142 [label="gini = 0.0\nsamples = 1\nvalue = [1, 0]"] ;
141 -> 142 ;
143 [label="X[3] <= 0.417\ngini = 0.444\nsamples = 3\nvalue = [2, 1]"] ;
141 -> 143 ;
144 [label="gini = 0.5\nsamples = 2\nvalue = [1, 1]"] ;
143 -> 144 ;
145 [label="gini = 0.0\nsamples = 1\nvalue = [1, 0]"] ;
143 -> 145 ;
146 [label="gini = 0.0\nsamples = 1\nvalue = [1, 0]"] ;
140 -> 146 ;
147 [label="X[50] <= 0.5\ngini = 0.101\nsamples = 56\nvalue = [53, 3]"] ;
131 -> 147 ;
148 [label="X[28] <= 0.5\ngini = 0.191\nsamples = 28\nvalue = [25, 3]"] ;
147 -> 148 ;
149 [label="X[20] <= 0.5\ngini = 0.1\nsamples = 19\nvalue = [18, 1]"] ;
148 -> 149 ;
150 [label="gini = 0.0\nsamples = 15\nvalue = [15, 0]"] ;
149 -> 150 ;
151 [label="X[0] <= 0.171\ngini = 0.375\nsamples = 4\nvalue = [3, 1]"] ;
149 -> 151 ;
152 [label="gini = 0.0\nsamples = 2\nvalue = [2, 0]"] ;
151 -> 152 ;
153 [label="X[0] <= 0.199\ngini = 0.5\nsamples = 2\nvalue = [1, 1]"] ;
151 -> 153 ;
154 [label="gini = 0.0\nsamples = 1\nvalue = [0, 1]"] ;
153 -> 154 ;
155 [label="gini = 0.0\nsamples = 1\nvalue = [1, 0]"] ;
153 -> 155 ;
156 [label="X[1] <= 0.633\ngini = 0.346\nsamples = 9\nvalue = [7, 2]"] ;
148 -> 156 ;
157 [label="X[4] <= 0.27\ngini = 0.444\nsamples = 6\nvalue = [4, 2]"] ;
156 -> 157 ;
158 [label="gini = 0.0\nsamples = 1\nvalue = [1, 0]"] ;
157 -> 158 ;
159 [label="X[4] <= 0.372\ngini = 0.48\nsamples = 5\nvalue = [3, 2]"] ;
157 -> 159 ;
160 [label="gini = 0.0\nsamples = 1\nvalue = [0, 1]"] ;
159 -> 160 ;
161 [label="X[0] <= 0.199\ngini = 0.375\nsamples = 4\nvalue = [3, 1]"] ;
159 -> 161 ;
162 [label="gini = 0.0\nsamples = 2\nvalue = [2, 0]"] ;
161 -> 162 ;
163 [label="X[52] <= 0.5\ngini = 0.5\nsamples = 2\nvalue = [1, 1]"] ;
161 -> 163 ;
164 [label="gini = 0.0\nsamples = 1\nvalue = [1, 0]"] ;
163 -> 164 ;
165 [label="gini = 0.0\nsamples = 1\nvalue = [0, 1]"] ;
163 -> 165 ;
166 [label="gini = 0.0\nsamples = 3\nvalue = [3, 0]"] ;
156 -> 166 ;
167 [label="gini = 0.0\nsamples = 28\nvalue = [28, 0]"] ;
147 -> 167 ;
168 [label="X[23] <= 0.5\ngini = 0.5\nsamples = 2\nvalue = [1, 1]"] ;
130 -> 168 ;
169 [label="gini = 0.0\nsamples = 1\nvalue = [0, 1]"] ;
168 -> 169 ;
170 [label="gini = 0.0\nsamples = 1\nvalue = [1, 0]"] ;
168 -> 170 ;
171 [label="X[27] <= 0.5\ngini = 0.198\nsamples = 9\nvalue = [8, 1]"] ;
87 -> 171 ;
172 [label="gini = 0.0\nsamples = 7\nvalue = [7, 0]"] ;
171 -> 172 ;
173 [label="X[32] <= 0.5\ngini = 0.5\nsamples = 2\nvalue = [1, 1]"] ;
171 -> 173 ;
174 [label="gini = 0.0\nsamples = 1\nvalue = [1, 0]"] ;
173 -> 174 ;
175 [label="gini = 0.0\nsamples = 1\nvalue = [0, 1]"] ;
173 -> 175 ;
176 [label="X[1] <= 0.7\ngini = 0.198\nsamples = 9\nvalue = [8, 1]"] ;
86 -> 176 ;
177 [label="gini = 0.0\nsamples = 8\nvalue = [8, 0]"] ;
176 -> 177 ;
178 [label="gini = 0.0\nsamples = 1\nvalue = [0, 1]"] ;
176 -> 178 ;
179 [label="X[2] <= 0.737\ngini = 0.444\nsamples = 3\nvalue = [2, 1]"] ;
85 -> 179 ;
180 [label="gini = 0.0\nsamples = 1\nvalue = [0, 1]"] ;
179 -> 180 ;
181 [label="gini = 0.0\nsamples = 2\nvalue = [2, 0]"] ;
179 -> 181 ;
182 [label="X[38] <= 0.5\ngini = 0.375\nsamples = 12\nvalue = [9, 3]"] ;
6 -> 182 ;
183 [label="X[0] <= 0.144\ngini = 0.298\nsamples = 11\nvalue = [9, 2]"] ;
182 -> 183 ;
184 [label="X[0] <= 0.048\ngini = 0.48\nsamples = 5\nvalue = [3, 2]"] ;
183 -> 184 ;
185 [label="gini = 0.0\nsamples = 3\nvalue = [3, 0]"] ;
184 -> 185 ;
186 [label="gini = 0.0\nsamples = 2\nvalue = [0, 2]"] ;
184 -> 186 ;
187 [label="gini = 0.0\nsamples = 6\nvalue = [6, 0]"] ;
183 -> 187 ;
188 [label="gini = 0.0\nsamples = 1\nvalue = [0, 1]"] ;
182 -> 188 ;
189 [label="X[44] <= 0.5\ngini = 0.054\nsamples = 5141\nvalue = [4998, 143]"] ;
5 -> 189 ;
190 [label="X[2] <= 0.735\ngini = 0.046\nsamples = 4878\nvalue = [4764, 114]"] ;
189 -> 190 ;
191 [label="X[38] <= 0.5\ngini = 0.043\nsamples = 4845\nvalue = [4738, 107]"] ;
190 -> 191 ;
192 [label="X[45] <= 0.5\ngini = 0.035\nsamples = 4450\nvalue = [4370, 80]"] ;
191 -> 192 ;
193 [label="X[54] <= 0.5\ngini = 0.033\nsamples = 4366\nvalue = [4293, 73]"] ;
192 -> 193 ;
194 [label="X[50] <= 0.5\ngini = 0.032\nsamples = 4363\nvalue = [4291, 72]"] ;
193 -> 194 ;
195 [label="X[57] <= 0.5\ngini = 0.017\nsamples = 2155\nvalue = [2137, 18]"] ;
194 -> 195 ;
196 [label="X[1] <= 0.567\ngini = 0.022\nsamples = 1633\nvalue = [1615, 18]"] ;
195 -> 196 ;
197 [label="X[8] <= 0.5\ngini = 0.014\nsamples = 1125\nvalue = [1117, 8]"] ;
196 -> 197 ;
198 [label="X[48] <= 0.5\ngini = 0.012\nsamples = 1119\nvalue = [1112, 7]"] ;
197 -> 198 ;
199 [label="X[0] <= 0.555\ngini = 0.009\nsamples = 1074\nvalue = [1069, 5]"] ;
198 -> 199 ;
200 [label="X[0] <= 0.308\ngini = 0.004\nsamples = 915\nvalue = [913, 2]"] ;
199 -> 200 ;
201 [label="X[0] <= 0.267\ngini = 0.012\nsamples = 342\nvalue = [340, 2]"] ;
200 -> 201 ;
202 [label="gini = 0.0\nsamples = 188\nvalue = [188, 0]"] ;
201 -> 202 ;
203 [label="X[41] <= 0.5\ngini = 0.026\nsamples = 154\nvalue = [152, 2]"] ;
201 -> 203 ;
204 [label="X[35] <= 0.5\ngini = 0.015\nsamples = 132\nvalue = [131, 1]"] ;
203 -> 204 ;
205 [label="gini = 0.0\nsamples = 99\nvalue = [99, 0]"] ;
204 -> 205 ;
206 [label="X[52] <= 0.5\ngini = 0.059\nsamples = 33\nvalue = [32, 1]"] ;
204 -> 206 ;
207 [label="gini = 0.0\nsamples = 24\nvalue = [24, 0]"] ;
206 -> 207 ;
208 [label="X[4] <= 0.388\ngini = 0.198\nsamples = 9\nvalue = [8, 1]"] ;
206 -> 208 ;
209 [label="gini = 0.0\nsamples = 6\nvalue = [6, 0]"] ;
208 -> 209 ;
210 [label="X[32] <= 0.5\ngini = 0.444\nsamples = 3\nvalue = [2, 1]"] ;
208 -> 210 ;
211 [label="gini = 0.0\nsamples = 2\nvalue = [2, 0]"] ;
210 -> 211 ;
212 [label="gini = 0.0\nsamples = 1\nvalue = [0, 1]"] ;
210 -> 212 ;
213 [label="X[28] <= 0.5\ngini = 0.087\nsamples = 22\nvalue = [21, 1]"] ;
203 -> 213 ;
214 [label="gini = 0.0\nsamples = 12\nvalue = [12, 0]"] ;
213 -> 214 ;
215 [label="X[61] <= 0.5\ngini = 0.18\nsamples = 10\nvalue = [9, 1]"] ;
213 -> 215 ;
216 [label="gini = 0.0\nsamples = 6\nvalue = [6, 0]"] ;
215 -> 216 ;
217 [label="X[0] <= 0.281\ngini = 0.375\nsamples = 4\nvalue = [3, 1]"] ;
215 -> 217 ;
218 [label="gini = 0.5\nsamples = 2\nvalue = [1, 1]"] ;
217 -> 218 ;
219 [label="gini = 0.0\nsamples = 2\nvalue = [2, 0]"] ;
217 -> 219 ;
220 [label="gini = 0.0\nsamples = 573\nvalue = [573, 0]"] ;
200 -> 220 ;
221 [label="X[13] <= 0.5\ngini = 0.037\nsamples = 159\nvalue = [156, 3]"] ;
199 -> 221 ;
222 [label="X[6] <= 0.5\ngini = 0.026\nsamples = 153\nvalue = [151, 2]"] ;
221 -> 222 ;
223 [label="X[0] <= 0.568\ngini = 0.014\nsamples = 142\nvalue = [141, 1]"] ;
222 -> 223 ;
224 [label="X[46] <= 0.5\ngini = 0.1\nsamples = 19\nvalue = [18, 1]"] ;
223 -> 224 ;
225 [label="gini = 0.0\nsamples = 16\nvalue = [16, 0]"] ;
224 -> 225 ;
226 [label="X[51] <= 0.5\ngini = 0.444\nsamples = 3\nvalue = [2, 1]"] ;
224 -> 226 ;
227 [label="gini = 0.0\nsamples = 1\nvalue = [0, 1]"] ;
226 -> 227 ;
228 [label="gini = 0.0\nsamples = 2\nvalue = [2, 0]"] ;
226 -> 228 ;
229 [label="gini = 0.0\nsamples = 123\nvalue = [123, 0]"] ;
223 -> 229 ;
230 [label="X[0] <= 0.664\ngini = 0.165\nsamples = 11\nvalue = [10, 1]"] ;
222 -> 230 ;
231 [label="gini = 0.0\nsamples = 6\nvalue = [6, 0]"] ;
230 -> 231 ;
232 [label="X[4] <= 0.332\ngini = 0.32\nsamples = 5\nvalue = [4, 1]"] ;
230 -> 232 ;
233 [label="gini = 0.0\nsamples = 4\nvalue = [4, 0]"] ;
232 -> 233 ;
234 [label="gini = 0.0\nsamples = 1\nvalue = [0, 1]"] ;
232 -> 234 ;
235 [label="X[7] <= 0.5\ngini = 0.278\nsamples = 6\nvalue = [5, 1]"] ;
221 -> 235 ;
236 [label="gini = 0.0\nsamples = 1\nvalue = [0, 1]"] ;
235 -> 236 ;
237 [label="gini = 0.0\nsamples = 5\nvalue = [5, 0]"] ;
235 -> 237 ;
238 [label="X[18] <= 0.5\ngini = 0.085\nsamples = 45\nvalue = [43, 2]"] ;
198 -> 238 ;
239 [label="X[12] <= 0.5\ngini = 0.044\nsamples = 44\nvalue = [43, 1]"] ;
238 -> 239 ;
240 [label="gini = 0.0\nsamples = 37\nvalue = [37, 0]"] ;
239 -> 240 ;
241 [label="X[32] <= 0.5\ngini = 0.245\nsamples = 7\nvalue = [6, 1]"] ;
239 -> 241 ;
242 [label="gini = 0.0\nsamples = 6\nvalue = [6, 0]"] ;
241 -> 242 ;
243 [label="gini = 0.0\nsamples = 1\nvalue = [0, 1]"] ;
241 -> 243 ;
244 [label="gini = 0.0\nsamples = 1\nvalue = [0, 1]"] ;
238 -> 244 ;
245 [label="X[51] <= 0.5\ngini = 0.278\nsamples = 6\nvalue = [5, 1]"] ;
197 -> 245 ;
246 [label="gini = 0.0\nsamples = 5\nvalue = [5, 0]"] ;
245 -> 246 ;
247 [label="gini = 0.0\nsamples = 1\nvalue = [0, 1]"] ;
245 -> 247 ;
248 [label="X[37] <= 0.5\ngini = 0.039\nsamples = 508\nvalue = [498, 10]"] ;
196 -> 248 ;
249 [label="X[35] <= 0.5\ngini = 0.026\nsamples = 450\nvalue = [444, 6]"] ;
248 -> 249 ;
250 [label="X[51] <= 0.5\ngini = 0.008\nsamples = 237\nvalue = [236, 1]"] ;
249 -> 250 ;
251 [label="gini = 0.0\nsamples = 224\nvalue = [224, 0]"] ;
250 -> 251 ;
252 [label="X[46] <= 0.5\ngini = 0.142\nsamples = 13\nvalue = [12, 1]"] ;
250 -> 252 ;
253 [label="gini = 0.0\nsamples = 11\nvalue = [11, 0]"] ;
252 -> 253 ;
254 [label="X[0] <= 0.39\ngini = 0.5\nsamples = 2\nvalue = [1, 1]"] ;
252 -> 254 ;
255 [label="gini = 0.0\nsamples = 1\nvalue = [1, 0]"] ;
254 -> 255 ;
256 [label="gini = 0.0\nsamples = 1\nvalue = [0, 1]"] ;
254 -> 256 ;
257 [label="X[60] <= 0.5\ngini = 0.046\nsamples = 213\nvalue = [208, 5]"] ;
249 -> 257 ;
258 [label="X[4] <= 0.388\ngini = 0.165\nsamples = 22\nvalue = [20, 2]"] ;
257 -> 258 ;
259 [label="X[4] <= 0.209\ngini = 0.5\nsamples = 2\nvalue = [1, 1]"] ;
258 -> 259 ;
260 [label="gini = 0.0\nsamples = 1\nvalue = [1, 0]"] ;
259 -> 260 ;
261 [label="gini = 0.0\nsamples = 1\nvalue = [0, 1]"] ;
259 -> 261 ;
262 [label="X[0] <= 0.247\ngini = 0.095\nsamples = 20\nvalue = [19, 1]"] ;
258 -> 262 ;
263 [label="X[28] <= 0.5\ngini = 0.32\nsamples = 5\nvalue = [4, 1]"] ;
262 -> 263 ;
264 [label="gini = 0.444\nsamples = 3\nvalue = [2, 1]"] ;
263 -> 264 ;
265 [label="gini = 0.0\nsamples = 2\nvalue = [2, 0]"] ;
263 -> 265 ;
266 [label="gini = 0.0\nsamples = 15\nvalue = [15, 0]"] ;
262 -> 266 ;
267 [label="X[19] <= 0.5\ngini = 0.031\nsamples = 191\nvalue = [188, 3]"] ;
257 -> 267 ;
268 [label="X[34] <= 0.5\ngini = 0.012\nsamples = 166\nvalue = [165, 1]"] ;
267 -> 268 ;
269 [label="gini = 0.0\nsamples = 151\nvalue = [151, 0]"] ;
268 -> 269 ;
270 [label="X[0] <= 0.438\ngini = 0.124\nsamples = 15\nvalue = [14, 1]"] ;
268 -> 270 ;
271 [label="X[0] <= 0.397\ngini = 0.375\nsamples = 4\nvalue = [3, 1]"] ;
270 -> 271 ;
272 [label="gini = 0.0\nsamples = 3\nvalue = [3, 0]"] ;
271 -> 272 ;
273 [label="gini = 0.0\nsamples = 1\nvalue = [0, 1]"] ;
271 -> 273 ;
274 [label="gini = 0.0\nsamples = 11\nvalue = [11, 0]"] ;
270 -> 274 ;
275 [label="X[33] <= 0.5\ngini = 0.147\nsamples = 25\nvalue = [23, 2]"] ;
267 -> 275 ;
276 [label="X[0] <= 0.308\ngini = 0.083\nsamples = 23\nvalue = [22, 1]"] ;
275 -> 276 ;
277 [label="X[0] <= 0.295\ngini = 0.219\nsamples = 8\nvalue = [7, 1]"] ;
276 -> 277 ;
278 [label="gini = 0.0\nsamples = 6\nvalue = [6, 0]"] ;
277 -> 278 ;
279 [label="X[32] <= 0.5\ngini = 0.5\nsamples = 2\nvalue = [1, 1]"] ;
277 -> 279 ;
280 [label="gini = 0.0\nsamples = 1\nvalue = [0, 1]"] ;
279 -> 280 ;
281 [label="gini = 0.0\nsamples = 1\nvalue = [1, 0]"] ;
279 -> 281 ;
282 [label="gini = 0.0\nsamples = 15\nvalue = [15, 0]"] ;
276 -> 282 ;
283 [label="X[6] <= 0.5\ngini = 0.5\nsamples = 2\nvalue = [1, 1]"] ;
275 -> 283 ;
284 [label="gini = 0.0\nsamples = 1\nvalue = [0, 1]"] ;
283 -> 284 ;
285 [label="gini = 0.0\nsamples = 1\nvalue = [1, 0]"] ;
283 -> 285 ;
286 [label="X[31] <= 0.5\ngini = 0.128\nsamples = 58\nvalue = [54, 4]"] ;
248 -> 286 ;
287 [label="X[0] <= 0.384\ngini = 0.101\nsamples = 56\nvalue = [53, 3]"] ;
286 -> 287 ;
288 [label="gini = 0.0\nsamples = 37\nvalue = [37, 0]"] ;
287 -> 288 ;
289 [label="X[0] <= 0.432\ngini = 0.266\nsamples = 19\nvalue = [16, 3]"] ;
287 -> 289 ;
290 [label="X[4] <= 0.388\ngini = 0.469\nsamples = 8\nvalue = [5, 3]"] ;
289 -> 290 ;
291 [label="gini = 0.0\nsamples = 1\nvalue = [0, 1]"] ;
290 -> 291 ;
292 [label="X[28] <= 0.5\ngini = 0.408\nsamples = 7\nvalue = [5, 2]"] ;
290 -> 292 ;
293 [label="gini = 0.0\nsamples = 3\nvalue = [3, 0]"] ;
292 -> 293 ;
294 [label="X[27] <= 0.5\ngini = 0.5\nsamples = 4\nvalue = [2, 2]"] ;
292 -> 294 ;
295 [label="gini = 0.0\nsamples = 1\nvalue = [1, 0]"] ;
294 -> 295 ;
296 [label="X[7] <= 0.5\ngini = 0.444\nsamples = 3\nvalue = [1, 2]"] ;
294 -> 296 ;
297 [label="gini = 0.0\nsamples = 1\nvalue = [1, 0]"] ;
296 -> 297 ;
298 [label="gini = 0.0\nsamples = 2\nvalue = [0, 2]"] ;
296 -> 298 ;
299 [label="gini = 0.0\nsamples = 11\nvalue = [11, 0]"] ;
289 -> 299 ;
300 [label="X[27] <= 0.5\ngini = 0.5\nsamples = 2\nvalue = [1, 1]"] ;
286 -> 300 ;
301 [label="gini = 0.0\nsamples = 1\nvalue = [1, 0]"] ;
300 -> 301 ;
302 [label="gini = 0.0\nsamples = 1\nvalue = [0, 1]"] ;
300 -> 302 ;
303 [label="gini = 0.0\nsamples = 522\nvalue = [522, 0]"] ;
195 -> 303 ;
304 [label="X[0] <= 0.404\ngini = 0.048\nsamples = 2208\nvalue = [2154, 54]"] ;
194 -> 304 ;
305 [label="X[27] <= 0.5\ngini = 0.026\nsamples = 1067\nvalue = [1053, 14]"] ;
304 -> 305 ;
306 [label="X[6] <= 0.5\ngini = 0.01\nsamples = 790\nvalue = [786, 4]"] ;
305 -> 306 ;
307 [label="X[47] <= 0.5\ngini = 0.008\nsamples = 763\nvalue = [760, 3]"] ;
306 -> 307 ;
308 [label="X[0] <= 0.24\ngini = 0.005\nsamples = 727\nvalue = [725, 2]"] ;
307 -> 308 ;
309 [label="X[33] <= 0.5\ngini = 0.026\nsamples = 77\nvalue = [76, 1]"] ;
308 -> 309 ;
310 [label="gini = 0.0\nsamples = 68\nvalue = [68, 0]"] ;
309 -> 310 ;
311 [label="X[35] <= 0.5\ngini = 0.198\nsamples = 9\nvalue = [8, 1]"] ;
309 -> 311 ;
312 [label="gini = 0.0\nsamples = 7\nvalue = [7, 0]"] ;
311 -> 312 ;
313 [label="X[60] <= 0.5\ngini = 0.5\nsamples = 2\nvalue = [1, 1]"] ;
311 -> 313 ;
314 [label="gini = 0.0\nsamples = 1\nvalue = [0, 1]"] ;
313 -> 314 ;
315 [label="gini = 0.0\nsamples = 1\nvalue = [1, 0]"] ;
313 -> 315 ;
316 [label="X[0] <= 0.363\ngini = 0.003\nsamples = 650\nvalue = [649, 1]"] ;
308 -> 316 ;
317 [label="gini = 0.0\nsamples = 507\nvalue = [507, 0]"] ;
316 -> 317 ;
318 [label="X[0] <= 0.377\ngini = 0.014\nsamples = 143\nvalue = [142, 1]"] ;
316 -> 318 ;
319 [label="X[37] <= 0.5\ngini = 0.059\nsamples = 33\nvalue = [32, 1]"] ;
318 -> 319 ;
320 [label="gini = 0.0\nsamples = 25\nvalue = [25, 0]"] ;
319 -> 320 ;
321 [label="X[32] <= 0.5\ngini = 0.219\nsamples = 8\nvalue = [7, 1]"] ;
319 -> 321 ;
322 [label="X[23] <= 0.5\ngini = 0.32\nsamples = 5\nvalue = [4, 1]"] ;
321 -> 322 ;
323 [label="gini = 0.0\nsamples = 2\nvalue = [2, 0]"] ;
322 -> 323 ;
324 [label="X[7] <= 0.5\ngini = 0.444\nsamples = 3\nvalue = [2, 1]"] ;
322 -> 324 ;
325 [label="gini = 0.0\nsamples = 1\nvalue = [1, 0]"] ;
324 -> 325 ;
326 [label="gini = 0.5\nsamples = 2\nvalue = [1, 1]"] ;
324 -> 326 ;
327 [label="gini = 0.0\nsamples = 3\nvalue = [3, 0]"] ;
321 -> 327 ;
328 [label="gini = 0.0\nsamples = 110\nvalue = [110, 0]"] ;
318 -> 328 ;
329 [label="X[0] <= 0.267\ngini = 0.054\nsamples = 36\nvalue = [35, 1]"] ;
307 -> 329 ;
330 [label="X[20] <= 0.5\ngini = 0.18\nsamples = 10\nvalue = [9, 1]"] ;
329 -> 330 ;
331 [label="gini = 0.0\nsamples = 7\nvalue = [7, 0]"] ;
330 -> 331 ;
332 [label="X[0] <= 0.253\ngini = 0.444\nsamples = 3\nvalue = [2, 1]"] ;
330 -> 332 ;
333 [label="gini = 0.0\nsamples = 2\nvalue = [2, 0]"] ;
332 -> 333 ;
334 [label="gini = 0.0\nsamples = 1\nvalue = [0, 1]"] ;
332 -> 334 ;
335 [label="gini = 0.0\nsamples = 26\nvalue = [26, 0]"] ;
329 -> 335 ;
336 [label="X[40] <= 0.5\ngini = 0.071\nsamples = 27\nvalue = [26, 1]"] ;
306 -> 336 ;
337 [label="gini = 0.0\nsamples = 25\nvalue = [25, 0]"] ;
336 -> 337 ;
338 [label="X[1] <= 0.367\ngini = 0.5\nsamples = 2\nvalue = [1, 1]"] ;
336 -> 338 ;
339 [label="gini = 0.0\nsamples = 1\nvalue = [1, 0]"] ;
338 -> 339 ;
340 [label="gini = 0.0\nsamples = 1\nvalue = [0, 1]"] ;
338 -> 340 ;
341 [label="X[74] <= 0.5\ngini = 0.07\nsamples = 277\nvalue = [267, 10]"] ;
305 -> 341 ;
342 [label="X[5] <= 0.5\ngini = 0.063\nsamples = 276\nvalue = [267, 9]"] ;
341 -> 342 ;
343 [label="X[0] <= 0.349\ngini = 0.052\nsamples = 263\nvalue = [256, 7]"] ;
342 -> 343 ;
344 [label="X[0] <= 0.322\ngini = 0.07\nsamples = 193\nvalue = [186, 7]"] ;
343 -> 344 ;
345 [label="X[48] <= 0.5\ngini = 0.041\nsamples = 143\nvalue = [140, 3]"] ;
344 -> 345 ;
346 [label="X[9] <= 0.5\ngini = 0.029\nsamples = 135\nvalue = [133, 2]"] ;
345 -> 346 ;
347 [label="X[35] <= 0.5\ngini = 0.016\nsamples = 124\nvalue = [123, 1]"] ;
346 -> 347 ;
348 [label="gini = 0.0\nsamples = 95\nvalue = [95, 0]"] ;
347 -> 348 ;
349 [label="X[28] <= 0.5\ngini = 0.067\nsamples = 29\nvalue = [28, 1]"] ;
347 -> 349 ;
350 [label="gini = 0.0\nsamples = 20\nvalue = [20, 0]"] ;
349 -> 350 ;
351 [label="X[0] <= 0.253\ngini = 0.198\nsamples = 9\nvalue = [8, 1]"] ;
349 -> 351 ;
352 [label="X[0] <= 0.24\ngini = 0.444\nsamples = 3\nvalue = [2, 1]"] ;
351 -> 352 ;
353 [label="gini = 0.0\nsamples = 1\nvalue = [1, 0]"] ;
352 -> 353 ;
354 [label="gini = 0.5\nsamples = 2\nvalue = [1, 1]"] ;
352 -> 354 ;
355 [label="gini = 0.0\nsamples = 6\nvalue = [6, 0]"] ;
351 -> 355 ;
356 [label="X[0] <= 0.308\ngini = 0.165\nsamples = 11\nvalue = [10, 1]"] ;
346 -> 356 ;
357 [label="gini = 0.0\nsamples = 9\nvalue = [9, 0]"] ;
356 -> 357 ;
358 [label="X[41] <= 0.5\ngini = 0.5\nsamples = 2\nvalue = [1, 1]"] ;
356 -> 358 ;
359 [label="gini = 0.0\nsamples = 1\nvalue = [0, 1]"] ;
358 -> 359 ;
360 [label="gini = 0.0\nsamples = 1\nvalue = [1, 0]"] ;
358 -> 360 ;
361 [label="X[59] <= 0.5\ngini = 0.219\nsamples = 8\nvalue = [7, 1]"] ;
345 -> 361 ;
362 [label="X[0] <= 0.281\ngini = 0.5\nsamples = 2\nvalue = [1, 1]"] ;
361 -> 362 ;
363 [label="gini = 0.0\nsamples = 1\nvalue = [0, 1]"] ;
362 -> 363 ;
364 [label="gini = 0.0\nsamples = 1\nvalue = [1, 0]"] ;
362 -> 364 ;
365 [label="gini = 0.0\nsamples = 6\nvalue = [6, 0]"] ;
361 -> 365 ;
366 [label="X[37] <= 0.5\ngini = 0.147\nsamples = 50\nvalue = [46, 4]"] ;
344 -> 366 ;
367 [label="X[42] <= 0.5\ngini = 0.1\nsamples = 38\nvalue = [36, 2]"] ;
366 -> 367 ;
368 [label="X[47] <= 0.5\ngini = 0.059\nsamples = 33\nvalue = [32, 1]"] ;
367 -> 368 ;
369 [label="gini = 0.0\nsamples = 28\nvalue = [28, 0]"] ;
368 -> 369 ;
370 [label="X[28] <= 0.5\ngini = 0.32\nsamples = 5\nvalue = [4, 1]"] ;
368 -> 370 ;
371 [label="X[4] <= 0.362\ngini = 0.5\nsamples = 2\nvalue = [1, 1]"] ;
370 -> 371 ;
372 [label="gini = 0.0\nsamples = 1\nvalue = [1, 0]"] ;
371 -> 372 ;
373 [label="gini = 0.0\nsamples = 1\nvalue = [0, 1]"] ;
371 -> 373 ;
374 [label="gini = 0.0\nsamples = 3\nvalue = [3, 0]"] ;
370 -> 374 ;
375 [label="X[60] <= 0.5\ngini = 0.32\nsamples = 5\nvalue = [4, 1]"] ;
367 -> 375 ;
376 [label="gini = 0.0\nsamples = 4\nvalue = [4, 0]"] ;
375 -> 376 ;
377 [label="gini = 0.0\nsamples = 1\nvalue = [0, 1]"] ;
375 -> 377 ;
378 [label="X[28] <= 0.5\ngini = 0.278\nsamples = 12\nvalue = [10, 2]"] ;
366 -> 378 ;
379 [label="gini = 0.0\nsamples = 5\nvalue = [5, 0]"] ;
378 -> 379 ;
380 [label="X[7] <= 0.5\ngini = 0.408\nsamples = 7\nvalue = [5, 2]"] ;
378 -> 380 ;
381 [label="gini = 0.0\nsamples = 3\nvalue = [3, 0]"] ;
380 -> 381 ;
382 [label="X[2] <= 0.352\ngini = 0.5\nsamples = 4\nvalue = [2, 2]"] ;
380 -> 382 ;
383 [label="gini = 0.444\nsamples = 3\nvalue = [1, 2]"] ;
382 -> 383 ;
384 [label="gini = 0.0\nsamples = 1\nvalue = [1, 0]"] ;
382 -> 384 ;
385 [label="gini = 0.0\nsamples = 70\nvalue = [70, 0]"] ;
343 -> 385 ;
386 [label="X[28] <= 0.5\ngini = 0.26\nsamples = 13\nvalue = [11, 2]"] ;
342 -> 386 ;
387 [label="gini = 0.0\nsamples = 7\nvalue = [7, 0]"] ;
386 -> 387 ;
388 [label="X[0] <= 0.329\ngini = 0.444\nsamples = 6\nvalue = [4, 2]"] ;
386 -> 388 ;
389 [label="X[47] <= 0.5\ngini = 0.444\nsamples = 3\nvalue = [1, 2]"] ;
388 -> 389 ;
390 [label="gini = 0.0\nsamples = 2\nvalue = [0, 2]"] ;
389 -> 390 ;
391 [label="gini = 0.0\nsamples = 1\nvalue = [1, 0]"] ;
389 -> 391 ;
392 [label="gini = 0.0\nsamples = 3\nvalue = [3, 0]"] ;
388 -> 392 ;
393 [label="gini = 0.0\nsamples = 1\nvalue = [0, 1]"] ;
341 -> 393 ;
394 [label="X[94] <= 0.5\ngini = 0.068\nsamples = 1141\nvalue = [1101, 40]"] ;
304 -> 394 ;
395 [label="X[42] <= 0.5\ngini = 0.065\nsamples = 1134\nvalue = [1096, 38]"] ;
394 -> 395 ;
396 [label="X[61] <= 0.5\ngini = 0.081\nsamples = 872\nvalue = [835, 37]"] ;
395 -> 396 ;
397 [label="X[46] <= 0.5\ngini = 0.055\nsamples = 561\nvalue = [545, 16]"] ;
396 -> 397 ;
398 [label="X[6] <= 0.5\ngini = 0.042\nsamples = 463\nvalue = [453, 10]"] ;
397 -> 398 ;
399 [label="X[0] <= 0.432\ngini = 0.033\nsamples = 416\nvalue = [409, 7]"] ;
398 -> 399 ;
400 [label="X[32] <= 0.5\ngini = 0.108\nsamples = 35\nvalue = [33, 2]"] ;
399 -> 400 ;
401 [label="X[4] <= 0.372\ngini = 0.069\nsamples = 28\nvalue = [27, 1]"] ;
400 -> 401 ;
402 [label="X[4] <= 0.362\ngini = 0.198\nsamples = 9\nvalue = [8, 1]"] ;
401 -> 402 ;
403 [label="gini = 0.0\nsamples = 6\nvalue = [6, 0]"] ;
402 -> 403 ;
404 [label="X[57] <= 0.5\ngini = 0.444\nsamples = 3\nvalue = [2, 1]"] ;
402 -> 404 ;
405 [label="gini = 0.0\nsamples = 1\nvalue = [0, 1]"] ;
404 -> 405 ;
406 [label="gini = 0.0\nsamples = 2\nvalue = [2, 0]"] ;
404 -> 406 ;
407 [label="gini = 0.0\nsamples = 19\nvalue = [19, 0]"] ;
401 -> 407 ;
408 [label="X[0] <= 0.418\ngini = 0.245\nsamples = 7\nvalue = [6, 1]"] ;
400 -> 408 ;
409 [label="X[27] <= 0.5\ngini = 0.444\nsamples = 3\nvalue = [2, 1]"] ;
408 -> 409 ;
410 [label="gini = 0.0\nsamples = 1\nvalue = [1, 0]"] ;
409 -> 410 ;
411 [label="gini = 0.5\nsamples = 2\nvalue = [1, 1]"] ;
409 -> 411 ;
412 [label="gini = 0.0\nsamples = 4\nvalue = [4, 0]"] ;
408 -> 412 ;
413 [label="X[9] <= 0.5\ngini = 0.026\nsamples = 381\nvalue = [376, 5]"] ;
399 -> 413 ;
414 [label="X[23] <= 0.5\ngini = 0.021\nsamples = 369\nvalue = [365, 4]"] ;
413 -> 414 ;
415 [label="gini = 0.0\nsamples = 177\nvalue = [177, 0]"] ;
414 -> 415 ;
416 [label="X[0] <= 0.788\ngini = 0.041\nsamples = 192\nvalue = [188, 4]"] ;
414 -> 416 ;
417 [label="X[0] <= 0.541\ngini = 0.032\nsamples = 182\nvalue = [179, 3]"] ;
416 -> 417 ;
418 [label="gini = 0.0\nsamples = 83\nvalue = [83, 0]"] ;
417 -> 418 ;
419 [label="X[0] <= 0.568\ngini = 0.059\nsamples = 99\nvalue = [96, 3]"] ;
417 -> 419 ;
420 [label="X[41] <= 0.5\ngini = 0.231\nsamples = 15\nvalue = [13, 2]"] ;
419 -> 420 ;
421 [label="X[34] <= 0.5\ngini = 0.133\nsamples = 14\nvalue = [13, 1]"] ;
420 -> 421 ;
422 [label="gini = 0.0\nsamples = 8\nvalue = [8, 0]"] ;
421 -> 422 ;
423 [label="X[4] <= 0.383\ngini = 0.278\nsamples = 6\nvalue = [5, 1]"] ;
421 -> 423 ;
424 [label="gini = 0.0\nsamples = 4\nvalue = [4, 0]"] ;
423 -> 424 ;
425 [label="X[0] <= 0.555\ngini = 0.5\nsamples = 2\nvalue = [1, 1]"] ;
423 -> 425 ;
426 [label="gini = 0.0\nsamples = 1\nvalue = [1, 0]"] ;
425 -> 426 ;
427 [label="gini = 0.0\nsamples = 1\nvalue = [0, 1]"] ;
425 -> 427 ;
428 [label="gini = 0.0\nsamples = 1\nvalue = [0, 1]"] ;
420 -> 428 ;
429 [label="X[0] <= 0.637\ngini = 0.024\nsamples = 84\nvalue = [83, 1]"] ;
419 -> 429 ;
430 [label="gini = 0.0\nsamples = 44\nvalue = [44, 0]"] ;
429 -> 430 ;
431 [label="X[0] <= 0.651\ngini = 0.049\nsamples = 40\nvalue = [39, 1]"] ;
429 -> 431 ;
432 [label="X[4] <= 0.388\ngini = 0.198\nsamples = 9\nvalue = [8, 1]"] ;
431 -> 432 ;
433 [label="gini = 0.0\nsamples = 6\nvalue = [6, 0]"] ;
432 -> 433 ;
434 [label="X[35] <= 0.5\ngini = 0.444\nsamples = 3\nvalue = [2, 1]"] ;
432 -> 434 ;
435 [label="gini = 0.0\nsamples = 1\nvalue = [1, 0]"] ;
434 -> 435 ;
436 [label="gini = 0.5\nsamples = 2\nvalue = [1, 1]"] ;
434 -> 436 ;
437 [label="gini = 0.0\nsamples = 31\nvalue = [31, 0]"] ;
431 -> 437 ;
438 [label="X[32] <= 0.5\ngini = 0.18\nsamples = 10\nvalue = [9, 1]"] ;
416 -> 438 ;
439 [label="gini = 0.0\nsamples = 9\nvalue = [9, 0]"] ;
438 -> 439 ;
440 [label="gini = 0.0\nsamples = 1\nvalue = [0, 1]"] ;
438 -> 440 ;
441 [label="X[47] <= 0.5\ngini = 0.153\nsamples = 12\nvalue = [11, 1]"] ;
413 -> 441 ;
442 [label="gini = 0.0\nsamples = 11\nvalue = [11, 0]"] ;
441 -> 442 ;
443 [label="gini = 0.0\nsamples = 1\nvalue = [0, 1]"] ;
441 -> 443 ;
444 [label="X[23] <= 0.5\ngini = 0.12\nsamples = 47\nvalue = [44, 3]"] ;
398 -> 444 ;
445 [label="gini = 0.0\nsamples = 25\nvalue = [25, 0]"] ;
444 -> 445 ;
446 [label="X[4] <= 0.173\ngini = 0.236\nsamples = 22\nvalue = [19, 3]"] ;
444 -> 446 ;
447 [label="X[4] <= 0.133\ngini = 0.444\nsamples = 3\nvalue = [2, 1]"] ;
446 -> 447 ;
448 [label="gini = 0.0\nsamples = 2\nvalue = [2, 0]"] ;
447 -> 448 ;
449 [label="gini = 0.0\nsamples = 1\nvalue = [0, 1]"] ;
447 -> 449 ;
450 [label="X[4] <= 0.321\ngini = 0.188\nsamples = 19\nvalue = [17, 2]"] ;
446 -> 450 ;
451 [label="gini = 0.0\nsamples = 5\nvalue = [5, 0]"] ;
450 -> 451 ;
452 [label="X[4] <= 0.362\ngini = 0.245\nsamples = 14\nvalue = [12, 2]"] ;
450 -> 452 ;
453 [label="X[28] <= 0.5\ngini = 0.5\nsamples = 2\nvalue = [1, 1]"] ;
452 -> 453 ;
454 [label="gini = 0.0\nsamples = 1\nvalue = [0, 1]"] ;
453 -> 454 ;
455 [label="gini = 0.0\nsamples = 1\nvalue = [1, 0]"] ;
453 -> 455 ;
456 [label="X[0] <= 0.527\ngini = 0.153\nsamples = 12\nvalue = [11, 1]"] ;
452 -> 456 ;
457 [label="X[0] <= 0.507\ngini = 0.32\nsamples = 5\nvalue = [4, 1]"] ;
456 -> 457 ;
458 [label="gini = 0.0\nsamples = 3\nvalue = [3, 0]"] ;
457 -> 458 ;
459 [label="gini = 0.5\nsamples = 2\nvalue = [1, 1]"] ;
457 -> 459 ;
460 [label="gini = 0.0\nsamples = 7\nvalue = [7, 0]"] ;
456 -> 460 ;
461 [label="X[0] <= 0.781\ngini = 0.115\nsamples = 98\nvalue = [92, 6]"] ;
397 -> 461 ;
462 [label="X[34] <= 0.5\ngini = 0.099\nsamples = 96\nvalue = [91, 5]"] ;
461 -> 462 ;
463 [label="X[27] <= 0.5\ngini = 0.034\nsamples = 58\nvalue = [57, 1]"] ;
462 -> 463 ;
464 [label="gini = 0.0\nsamples = 45\nvalue = [45, 0]"] ;
463 -> 464 ;
465 [label="X[0] <= 0.473\ngini = 0.142\nsamples = 13\nvalue = [12, 1]"] ;
463 -> 465 ;
466 [label="X[4] <= 0.388\ngini = 0.32\nsamples = 5\nvalue = [4, 1]"] ;
465 -> 466 ;
467 [label="X[4] <= 0.347\ngini = 0.5\nsamples = 2\nvalue = [1, 1]"] ;
466 -> 467 ;
468 [label="gini = 0.0\nsamples = 1\nvalue = [1, 0]"] ;
467 -> 468 ;
469 [label="gini = 0.0\nsamples = 1\nvalue = [0, 1]"] ;
467 -> 469 ;
470 [label="gini = 0.0\nsamples = 3\nvalue = [3, 0]"] ;
466 -> 470 ;
471 [label="gini = 0.0\nsamples = 8\nvalue = [8, 0]"] ;
465 -> 471 ;
472 [label="X[0] <= 0.575\ngini = 0.188\nsamples = 38\nvalue = [34, 4]"] ;
462 -> 472 ;
473 [label="X[0] <= 0.555\ngini = 0.355\nsamples = 13\nvalue = [10, 3]"] ;
472 -> 473 ;
474 [label="gini = 0.0\nsamples = 10\nvalue = [10, 0]"] ;
473 -> 474 ;
475 [label="gini = 0.0\nsamples = 3\nvalue = [0, 3]"] ;
473 -> 475 ;
476 [label="X[4] <= 0.388\ngini = 0.077\nsamples = 25\nvalue = [24, 1]"] ;
472 -> 476 ;
477 [label="gini = 0.0\nsamples = 20\nvalue = [20, 0]"] ;
476 -> 477 ;
478 [label="X[0] <= 0.664\ngini = 0.32\nsamples = 5\nvalue = [4, 1]"] ;
476 -> 478 ;
479 [label="gini = 0.0\nsamples = 3\nvalue = [3, 0]"] ;
478 -> 479 ;
480 [label="gini = 0.5\nsamples = 2\nvalue = [1, 1]"] ;
478 -> 480 ;
481 [label="X[4] <= 0.327\ngini = 0.5\nsamples = 2\nvalue = [1, 1]"] ;
461 -> 481 ;
482 [label="gini = 0.0\nsamples = 1\nvalue = [1, 0]"] ;
481 -> 482 ;
483 [label="gini = 0.0\nsamples = 1\nvalue = [0, 1]"] ;
481 -> 483 ;
484 [label="X[83] <= 0.5\ngini = 0.126\nsamples = 311\nvalue = [290, 21]"] ;
396 -> 484 ;
485 [label="X[66] <= 0.5\ngini = 0.121\nsamples = 310\nvalue = [290, 20]"] ;
484 -> 485 ;
486 [label="X[4] <= 0.082\ngini = 0.116\nsamples = 308\nvalue = [289, 19]"] ;
485 -> 486 ;
487 [label="X[0] <= 0.548\ngini = 0.5\nsamples = 2\nvalue = [1, 1]"] ;
486 -> 487 ;
488 [label="gini = 0.0\nsamples = 1\nvalue = [0, 1]"] ;
487 -> 488 ;
489 [label="gini = 0.0\nsamples = 1\nvalue = [1, 0]"] ;
487 -> 489 ;
490 [label="X[1] <= 0.367\ngini = 0.111\nsamples = 306\nvalue = [288, 18]"] ;
486 -> 490 ;
491 [label="gini = 0.0\nsamples = 57\nvalue = [57, 0]"] ;
490 -> 491 ;
492 [label="X[0] <= 0.678\ngini = 0.134\nsamples = 249\nvalue = [231, 18]"] ;
490 -> 492 ;
493 [label="X[7] <= 0.5\ngini = 0.115\nsamples = 229\nvalue = [215, 14]"] ;
492 -> 493 ;
494 [label="X[0] <= 0.637\ngini = 0.03\nsamples = 66\nvalue = [65, 1]"] ;
493 -> 494 ;
495 [label="gini = 0.0\nsamples = 60\nvalue = [60, 0]"] ;
494 -> 495 ;
496 [label="X[34] <= 0.5\ngini = 0.278\nsamples = 6\nvalue = [5, 1]"] ;
494 -> 496 ;
497 [label="gini = 0.0\nsamples = 1\nvalue = [0, 1]"] ;
496 -> 497 ;
498 [label="gini = 0.0\nsamples = 5\nvalue = [5, 0]"] ;
496 -> 498 ;
499 [label="X[4] <= 0.388\ngini = 0.147\nsamples = 163\nvalue = [150, 13]"] ;
493 -> 499 ;
500 [label="gini = 0.0\nsamples = 28\nvalue = [28, 0]"] ;
499 -> 500 ;
501 [label="X[59] <= 0.5\ngini = 0.174\nsamples = 135\nvalue = [122, 13]"] ;
499 -> 501 ;
502 [label="gini = 0.0\nsamples = 21\nvalue = [21, 0]"] ;
501 -> 502 ;
503 [label="X[23] <= 0.5\ngini = 0.202\nsamples = 114\nvalue = [101, 13]"] ;
501 -> 503 ;
504 [label="X[0] <= 0.555\ngini = 0.301\nsamples = 38\nvalue = [31, 7]"] ;
503 -> 504 ;
505 [label="X[3] <= 0.439\ngini = 0.358\nsamples = 30\nvalue = [23, 7]"] ;
504 -> 505 ;
506 [label="X[0] <= 0.527\ngini = 0.328\nsamples = 29\nvalue = [23, 6]"] ;
505 -> 506 ;
507 [label="X[0] <= 0.432\ngini = 0.278\nsamples = 24\nvalue = [20, 4]"] ;
506 -> 507 ;
508 [label="X[32] <= 0.5\ngini = 0.444\nsamples = 9\nvalue = [6, 3]"] ;
507 -> 508 ;
509 [label="X[41] <= 0.5\ngini = 0.375\nsamples = 8\nvalue = [6, 2]"] ;
508 -> 509 ;
510 [label="X[46] <= 0.5\ngini = 0.245\nsamples = 7\nvalue = [6, 1]"] ;
509 -> 510 ;
511 [label="gini = 0.0\nsamples = 6\nvalue = [6, 0]"] ;
510 -> 511 ;
512 [label="gini = 0.0\nsamples = 1\nvalue = [0, 1]"] ;
510 -> 512 ;
513 [label="gini = 0.0\nsamples = 1\nvalue = [0, 1]"] ;
509 -> 513 ;
514 [label="gini = 0.0\nsamples = 1\nvalue = [0, 1]"] ;
508 -> 514 ;
515 [label="X[35] <= 0.5\ngini = 0.124\nsamples = 15\nvalue = [14, 1]"] ;
507 -> 515 ;
516 [label="gini = 0.0\nsamples = 13\nvalue = [13, 0]"] ;
515 -> 516 ;
517 [label="X[13] <= 0.5\ngini = 0.5\nsamples = 2\nvalue = [1, 1]"] ;
515 -> 517 ;
518 [label="gini = 0.0\nsamples = 1\nvalue = [1, 0]"] ;
517 -> 518 ;
519 [label="gini = 0.0\nsamples = 1\nvalue = [0, 1]"] ;
517 -> 519 ;
520 [label="X[31] <= 0.5\ngini = 0.48\nsamples = 5\nvalue = [3, 2]"] ;
506 -> 520 ;
521 [label="gini = 0.0\nsamples = 2\nvalue = [0, 2]"] ;
520 -> 521 ;
522 [label="gini = 0.0\nsamples = 3\nvalue = [3, 0]"] ;
520 -> 522 ;
523 [label="gini = 0.0\nsamples = 1\nvalue = [0, 1]"] ;
505 -> 523 ;
524 [label="gini = 0.0\nsamples = 8\nvalue = [8, 0]"] ;
504 -> 524 ;
525 [label="X[48] <= 0.5\ngini = 0.145\nsamples = 76\nvalue = [70, 6]"] ;
503 -> 525 ;
526 [label="X[0] <= 0.473\ngini = 0.114\nsamples = 66\nvalue = [62, 4]"] ;
525 -> 526 ;
527 [label="X[37] <= 0.5\ngini = 0.231\nsamples = 30\nvalue = [26, 4]"] ;
526 -> 527 ;
528 [label="X[32] <= 0.5\ngini = 0.105\nsamples = 18\nvalue = [17, 1]"] ;
527 -> 528 ;
529 [label="gini = 0.0\nsamples = 12\nvalue = [12, 0]"] ;
528 -> 529 ;
530 [label="X[40] <= 0.5\ngini = 0.278\nsamples = 6\nvalue = [5, 1]"] ;
528 -> 530 ;
531 [label="gini = 0.0\nsamples = 4\nvalue = [4, 0]"] ;
530 -> 531 ;
532 [label="gini = 0.5\nsamples = 2\nvalue = [1, 1]"] ;
530 -> 532 ;
533 [label="X[32] <= 0.5\ngini = 0.375\nsamples = 12\nvalue = [9, 3]"] ;
527 -> 533 ;
534 [label="X[0] <= 0.418\ngini = 0.32\nsamples = 10\nvalue = [8, 2]"] ;
533 -> 534 ;
535 [label="X[34] <= 0.5\ngini = 0.5\nsamples = 2\nvalue = [1, 1]"] ;
534 -> 535 ;
536 [label="gini = 0.0\nsamples = 1\nvalue = [0, 1]"] ;
535 -> 536 ;
537 [label="gini = 0.0\nsamples = 1\nvalue = [1, 0]"] ;
535 -> 537 ;
538 [label="X[0] <= 0.445\ngini = 0.219\nsamples = 8\nvalue = [7, 1]"] ;
534 -> 538 ;
539 [label="gini = 0.0\nsamples = 3\nvalue = [3, 0]"] ;
538 -> 539 ;
540 [label="X[0] <= 0.459\ngini = 0.32\nsamples = 5\nvalue = [4, 1]"] ;
538 -> 540 ;
541 [label="gini = 0.444\nsamples = 3\nvalue = [2, 1]"] ;
540 -> 541 ;
542 [label="gini = 0.0\nsamples = 2\nvalue = [2, 0]"] ;
540 -> 542 ;
543 [label="X[0] <= 0.438\ngini = 0.5\nsamples = 2\nvalue = [1, 1]"] ;
533 -> 543 ;
544 [label="gini = 0.0\nsamples = 1\nvalue = [1, 0]"] ;
543 -> 544 ;
545 [label="gini = 0.0\nsamples = 1\nvalue = [0, 1]"] ;
543 -> 545 ;
546 [label="gini = 0.0\nsamples = 36\nvalue = [36, 0]"] ;
526 -> 546 ;
547 [label="X[0] <= 0.568\ngini = 0.32\nsamples = 10\nvalue = [8, 2]"] ;
525 -> 547 ;
548 [label="X[0] <= 0.486\ngini = 0.198\nsamples = 9\nvalue = [8, 1]"] ;
547 -> 548 ;
549 [label="gini = 0.0\nsamples = 3\nvalue = [3, 0]"] ;
548 -> 549 ;
550 [label="X[0] <= 0.5\ngini = 0.278\nsamples = 6\nvalue = [5, 1]"] ;
548 -> 550 ;
551 [label="X[28] <= 0.5\ngini = 0.444\nsamples = 3\nvalue = [2, 1]"] ;
550 -> 551 ;
552 [label="gini = 0.0\nsamples = 1\nvalue = [1, 0]"] ;
551 -> 552 ;
553 [label="gini = 0.5\nsamples = 2\nvalue = [1, 1]"] ;
551 -> 553 ;
554 [label="gini = 0.0\nsamples = 3\nvalue = [3, 0]"] ;
550 -> 554 ;
555 [label="gini = 0.0\nsamples = 1\nvalue = [0, 1]"] ;
547 -> 555 ;
556 [label="X[5] <= 0.5\ngini = 0.32\nsamples = 20\nvalue = [16, 4]"] ;
492 -> 556 ;
557 [label="X[8] <= 0.5\ngini = 0.266\nsamples = 19\nvalue = [16, 3]"] ;
556 -> 557 ;
558 [label="X[46] <= 0.5\ngini = 0.198\nsamples = 18\nvalue = [16, 2]"] ;
557 -> 558 ;
559 [label="gini = 0.0\nsamples = 11\nvalue = [11, 0]"] ;
558 -> 559 ;
560 [label="X[32] <= 0.5\ngini = 0.408\nsamples = 7\nvalue = [5, 2]"] ;
558 -> 560 ;
561 [label="X[4] <= 0.26\ngini = 0.278\nsamples = 6\nvalue = [5, 1]"] ;
560 -> 561 ;
562 [label="gini = 0.0\nsamples = 3\nvalue = [3, 0]"] ;
561 -> 562 ;
563 [label="X[4] <= 0.372\ngini = 0.444\nsamples = 3\nvalue = [2, 1]"] ;
561 -> 563 ;
564 [label="gini = 0.0\nsamples = 1\nvalue = [0, 1]"] ;
563 -> 564 ;
565 [label="gini = 0.0\nsamples = 2\nvalue = [2, 0]"] ;
563 -> 565 ;
566 [label="gini = 0.0\nsamples = 1\nvalue = [0, 1]"] ;
560 -> 566 ;
567 [label="gini = 0.0\nsamples = 1\nvalue = [0, 1]"] ;
557 -> 567 ;
568 [label="gini = 0.0\nsamples = 1\nvalue = [0, 1]"] ;
556 -> 568 ;
569 [label="X[37] <= 0.5\ngini = 0.5\nsamples = 2\nvalue = [1, 1]"] ;
485 -> 569 ;
570 [label="gini = 0.0\nsamples = 1\nvalue = [1, 0]"] ;
569 -> 570 ;
571 [label="gini = 0.0\nsamples = 1\nvalue = [0, 1]"] ;
569 -> 571 ;
572 [label="gini = 0.0\nsamples = 1\nvalue = [0, 1]"] ;
484 -> 572 ;
573 [label="X[13] <= 0.5\ngini = 0.008\nsamples = 262\nvalue = [261, 1]"] ;
395 -> 573 ;
574 [label="gini = 0.0\nsamples = 247\nvalue = [247, 0]"] ;
573 -> 574 ;
575 [label="X[9] <= 0.5\ngini = 0.124\nsamples = 15\nvalue = [14, 1]"] ;
573 -> 575 ;
576 [label="gini = 0.0\nsamples = 14\nvalue = [14, 0]"] ;
575 -> 576 ;
577 [label="gini = 0.0\nsamples = 1\nvalue = [0, 1]"] ;
575 -> 577 ;
578 [label="X[28] <= 0.5\ngini = 0.408\nsamples = 7\nvalue = [5, 2]"] ;
394 -> 578 ;
579 [label="gini = 0.0\nsamples = 4\nvalue = [4, 0]"] ;
578 -> 579 ;
580 [label="X[61] <= 0.5\ngini = 0.444\nsamples = 3\nvalue = [1, 2]"] ;
578 -> 580 ;
581 [label="gini = 0.0\nsamples = 1\nvalue = [1, 0]"] ;
580 -> 581 ;
582 [label="gini = 0.0\nsamples = 2\nvalue = [0, 2]"] ;
580 -> 582 ;
583 [label="X[19] <= 0.5\ngini = 0.444\nsamples = 3\nvalue = [2, 1]"] ;
193 -> 583 ;
584 [label="X[0] <= 0.267\ngini = 0.5\nsamples = 2\nvalue = [1, 1]"] ;
583 -> 584 ;
585 [label="gini = 0.0\nsamples = 1\nvalue = [0, 1]"] ;
584 -> 585 ;
586 [label="gini = 0.0\nsamples = 1\nvalue = [1, 0]"] ;
584 -> 586 ;
587 [label="gini = 0.0\nsamples = 1\nvalue = [1, 0]"] ;
583 -> 587 ;
588 [label="X[7] <= 0.5\ngini = 0.153\nsamples = 84\nvalue = [77, 7]"] ;
192 -> 588 ;
589 [label="X[0] <= 0.281\ngini = 0.233\nsamples = 52\nvalue = [45, 7]"] ;
588 -> 589 ;
590 [label="gini = 0.0\nsamples = 18\nvalue = [18, 0]"] ;
589 -> 590 ;
591 [label="X[0] <= 0.349\ngini = 0.327\nsamples = 34\nvalue = [27, 7]"] ;
589 -> 591 ;
592 [label="X[10] <= 0.5\ngini = 0.473\nsamples = 13\nvalue = [8, 5]"] ;
591 -> 592 ;
593 [label="X[61] <= 0.5\ngini = 0.346\nsamples = 9\nvalue = [7, 2]"] ;
592 -> 593 ;
594 [label="X[23] <= 0.5\ngini = 0.5\nsamples = 4\nvalue = [2, 2]"] ;
593 -> 594 ;
595 [label="X[50] <= 0.5\ngini = 0.444\nsamples = 3\nvalue = [2, 1]"] ;
594 -> 595 ;
596 [label="gini = 0.0\nsamples = 2\nvalue = [2, 0]"] ;
595 -> 596 ;
597 [label="gini = 0.0\nsamples = 1\nvalue = [0, 1]"] ;
595 -> 597 ;
598 [label="gini = 0.0\nsamples = 1\nvalue = [0, 1]"] ;
594 -> 598 ;
599 [label="gini = 0.0\nsamples = 5\nvalue = [5, 0]"] ;
593 -> 599 ;
600 [label="X[0] <= 0.336\ngini = 0.375\nsamples = 4\nvalue = [1, 3]"] ;
592 -> 600 ;
601 [label="gini = 0.0\nsamples = 2\nvalue = [0, 2]"] ;
600 -> 601 ;
602 [label="X[53] <= 0.5\ngini = 0.5\nsamples = 2\nvalue = [1, 1]"] ;
600 -> 602 ;
603 [label="gini = 0.0\nsamples = 1\nvalue = [0, 1]"] ;
602 -> 603 ;
604 [label="gini = 0.0\nsamples = 1\nvalue = [1, 0]"] ;
602 -> 604 ;
605 [label="X[28] <= 0.5\ngini = 0.172\nsamples = 21\nvalue = [19, 2]"] ;
591 -> 605 ;
606 [label="X[6] <= 0.5\ngini = 0.32\nsamples = 10\nvalue = [8, 2]"] ;
605 -> 606 ;
607 [label="gini = 0.0\nsamples = 4\nvalue = [4, 0]"] ;
606 -> 607 ;
608 [label="X[59] <= 0.5\ngini = 0.444\nsamples = 6\nvalue = [4, 2]"] ;
606 -> 608 ;
609 [label="gini = 0.0\nsamples = 3\nvalue = [3, 0]"] ;
608 -> 609 ;
610 [label="X[4] <= 0.296\ngini = 0.444\nsamples = 3\nvalue = [1, 2]"] ;
608 -> 610 ;
611 [label="gini = 0.0\nsamples = 1\nvalue = [1, 0]"] ;
610 -> 611 ;
612 [label="gini = 0.0\nsamples = 2\nvalue = [0, 2]"] ;
610 -> 612 ;
613 [label="gini = 0.0\nsamples = 11\nvalue = [11, 0]"] ;
605 -> 613 ;
614 [label="gini = 0.0\nsamples = 32\nvalue = [32, 0]"] ;
588 -> 614 ;
615 [label="X[82] <= 0.5\ngini = 0.127\nsamples = 395\nvalue = [368, 27]"] ;
191 -> 615 ;
616 [label="X[7] <= 0.5\ngini = 0.123\nsamples = 394\nvalue = [368, 26]"] ;
615 -> 616 ;
617 [label="X[60] <= 0.5\ngini = 0.06\nsamples = 129\nvalue = [125, 4]"] ;
616 -> 617 ;
618 [label="X[0] <= 0.459\ngini = 0.136\nsamples = 41\nvalue = [38, 3]"] ;
617 -> 618 ;
619 [label="gini = 0.0\nsamples = 22\nvalue = [22, 0]"] ;
618 -> 619 ;
620 [label="X[4] <= 0.337\ngini = 0.266\nsamples = 19\nvalue = [16, 3]"] ;
618 -> 620 ;
621 [label="gini = 0.0\nsamples = 10\nvalue = [10, 0]"] ;
620 -> 621 ;
622 [label="X[0] <= 0.603\ngini = 0.444\nsamples = 9\nvalue = [6, 3]"] ;
620 -> 622 ;
623 [label="X[4] <= 0.372\ngini = 0.5\nsamples = 6\nvalue = [3, 3]"] ;
622 -> 623 ;
624 [label="gini = 0.0\nsamples = 2\nvalue = [0, 2]"] ;
623 -> 624 ;
625 [label="X[34] <= 0.5\ngini = 0.375\nsamples = 4\nvalue = [3, 1]"] ;
623 -> 625 ;
626 [label="gini = 0.0\nsamples = 3\nvalue = [3, 0]"] ;
625 -> 626 ;
627 [label="gini = 0.0\nsamples = 1\nvalue = [0, 1]"] ;
625 -> 627 ;
628 [label="gini = 0.0\nsamples = 3\nvalue = [3, 0]"] ;
622 -> 628 ;
629 [label="X[0] <= 0.267\ngini = 0.022\nsamples = 88\nvalue = [87, 1]"] ;
617 -> 629 ;
630 [label="X[57] <= 0.5\ngini = 0.198\nsamples = 9\nvalue = [8, 1]"] ;
629 -> 630 ;
631 [label="gini = 0.0\nsamples = 7\nvalue = [7, 0]"] ;
630 -> 631 ;
632 [label="X[50] <= 0.5\ngini = 0.5\nsamples = 2\nvalue = [1, 1]"] ;
630 -> 632 ;
633 [label="gini = 0.0\nsamples = 1\nvalue = [0, 1]"] ;
632 -> 633 ;
634 [label="gini = 0.0\nsamples = 1\nvalue = [1, 0]"] ;
632 -> 634 ;
635 [label="gini = 0.0\nsamples = 79\nvalue = [79, 0]"] ;
629 -> 635 ;
636 [label="X[34] <= 0.5\ngini = 0.152\nsamples = 265\nvalue = [243, 22]"] ;
616 -> 636 ;
637 [label="X[3] <= 0.875\ngini = 0.128\nsamples = 232\nvalue = [216, 16]"] ;
636 -> 637 ;
638 [label="X[0] <= 0.418\ngini = 0.123\nsamples = 228\nvalue = [213, 15]"] ;
637 -> 638 ;
639 [label="X[28] <= 0.5\ngini = 0.157\nsamples = 151\nvalue = [138, 13]"] ;
638 -> 639 ;
640 [label="X[0] <= 0.24\ngini = 0.038\nsamples = 52\nvalue = [51, 1]"] ;
639 -> 640 ;
641 [label="X[61] <= 0.5\ngini = 0.245\nsamples = 7\nvalue = [6, 1]"] ;
640 -> 641 ;
642 [label="gini = 0.0\nsamples = 6\nvalue = [6, 0]"] ;
641 -> 642 ;
643 [label="gini = 0.0\nsamples = 1\nvalue = [0, 1]"] ;
641 -> 643 ;
644 [label="gini = 0.0\nsamples = 45\nvalue = [45, 0]"] ;
640 -> 644 ;
645 [label="X[0] <= 0.308\ngini = 0.213\nsamples = 99\nvalue = [87, 12]"] ;
639 -> 645 ;
646 [label="X[0] <= 0.253\ngini = 0.124\nsamples = 45\nvalue = [42, 3]"] ;
645 -> 646 ;
647 [label="X[0] <= 0.24\ngini = 0.278\nsamples = 12\nvalue = [10, 2]"] ;
646 -> 647 ;
648 [label="gini = 0.0\nsamples = 3\nvalue = [3, 0]"] ;
647 -> 648 ;
649 [label="X[60] <= 0.5\ngini = 0.346\nsamples = 9\nvalue = [7, 2]"] ;
647 -> 649 ;
650 [label="gini = 0.0\nsamples = 2\nvalue = [2, 0]"] ;
649 -> 650 ;
651 [label="X[4] <= 0.296\ngini = 0.408\nsamples = 7\nvalue = [5, 2]"] ;
649 -> 651 ;
652 [label="gini = 0.0\nsamples = 1\nvalue = [1, 0]"] ;
651 -> 652 ;
653 [label="X[27] <= 0.5\ngini = 0.444\nsamples = 6\nvalue = [4, 2]"] ;
651 -> 653 ;
654 [label="gini = 0.5\nsamples = 2\nvalue = [1, 1]"] ;
653 -> 654 ;
655 [label="X[50] <= 0.5\ngini = 0.375\nsamples = 4\nvalue = [3, 1]"] ;
653 -> 655 ;
656 [label="gini = 0.0\nsamples = 1\nvalue = [1, 0]"] ;
655 -> 656 ;
657 [label="gini = 0.444\nsamples = 3\nvalue = [2, 1]"] ;
655 -> 657 ;
658 [label="X[50] <= 0.5\ngini = 0.059\nsamples = 33\nvalue = [32, 1]"] ;
646 -> 658 ;
659 [label="gini = 0.0\nsamples = 23\nvalue = [23, 0]"] ;
658 -> 659 ;
660 [label="X[27] <= 0.5\ngini = 0.18\nsamples = 10\nvalue = [9, 1]"] ;
658 -> 660 ;
661 [label="gini = 0.0\nsamples = 5\nvalue = [5, 0]"] ;
660 -> 661 ;
662 [label="X[0] <= 0.281\ngini = 0.32\nsamples = 5\nvalue = [4, 1]"] ;
660 -> 662 ;
663 [label="X[0] <= 0.267\ngini = 0.5\nsamples = 2\nvalue = [1, 1]"] ;
662 -> 663 ;
664 [label="gini = 0.0\nsamples = 1\nvalue = [1, 0]"] ;
663 -> 664 ;
665 [label="gini = 0.0\nsamples = 1\nvalue = [0, 1]"] ;
663 -> 665 ;
666 [label="gini = 0.0\nsamples = 3\nvalue = [3, 0]"] ;
662 -> 666 ;
667 [label="X[4] <= 0.388\ngini = 0.278\nsamples = 54\nvalue = [45, 9]"] ;
645 -> 667 ;
668 [label="X[23] <= 0.5\ngini = 0.5\nsamples = 4\nvalue = [2, 2]"] ;
667 -> 668 ;
669 [label="gini = 0.0\nsamples = 2\nvalue = [2, 0]"] ;
668 -> 669 ;
670 [label="gini = 0.0\nsamples = 2\nvalue = [0, 2]"] ;
668 -> 670 ;
671 [label="X[0] <= 0.322\ngini = 0.241\nsamples = 50\nvalue = [43, 7]"] ;
667 -> 671 ;
672 [label="X[1] <= 0.667\ngini = 0.42\nsamples = 10\nvalue = [7, 3]"] ;
671 -> 672 ;
673 [label="X[23] <= 0.5\ngini = 0.245\nsamples = 7\nvalue = [6, 1]"] ;
672 -> 673 ;
674 [label="X[60] <= 0.5\ngini = 0.32\nsamples = 5\nvalue = [4, 1]"] ;
673 -> 674 ;
675 [label="gini = 0.0\nsamples = 2\nvalue = [2, 0]"] ;
674 -> 675 ;
676 [label="gini = 0.444\nsamples = 3\nvalue = [2, 1]"] ;
674 -> 676 ;
677 [label="gini = 0.0\nsamples = 2\nvalue = [2, 0]"] ;
673 -> 677 ;
678 [label="X[61] <= 0.5\ngini = 0.444\nsamples = 3\nvalue = [1, 2]"] ;
672 -> 678 ;
679 [label="gini = 0.5\nsamples = 2\nvalue = [1, 1]"] ;
678 -> 679 ;
680 [label="gini = 0.0\nsamples = 1\nvalue = [0, 1]"] ;
678 -> 680 ;
681 [label="X[27] <= 0.5\ngini = 0.18\nsamples = 40\nvalue = [36, 4]"] ;
671 -> 681 ;
682 [label="X[0] <= 0.404\ngini = 0.252\nsamples = 27\nvalue = [23, 4]"] ;
681 -> 682 ;
683 [label="X[0] <= 0.39\ngini = 0.219\nsamples = 24\nvalue = [21, 3]"] ;
682 -> 683 ;
684 [label="X[0] <= 0.377\ngini = 0.278\nsamples = 18\nvalue = [15, 3]"] ;
683 -> 684 ;
685 [label="X[23] <= 0.5\ngini = 0.219\nsamples = 16\nvalue = [14, 2]"] ;
684 -> 685 ;
686 [label="gini = 0.0\nsamples = 4\nvalue = [4, 0]"] ;
685 -> 686 ;
687 [label="X[0] <= 0.336\ngini = 0.278\nsamples = 12\nvalue = [10, 2]"] ;
685 -> 687 ;
688 [label="gini = 0.0\nsamples = 3\nvalue = [3, 0]"] ;
687 -> 688 ;
689 [label="X[0] <= 0.349\ngini = 0.346\nsamples = 9\nvalue = [7, 2]"] ;
687 -> 689 ;
690 [label="X[53] <= 0.5\ngini = 0.444\nsamples = 3\nvalue = [2, 1]"] ;
689 -> 690 ;
691 [label="gini = 0.5\nsamples = 2\nvalue = [1, 1]"] ;
690 -> 691 ;
692 [label="gini = 0.0\nsamples = 1\nvalue = [1, 0]"] ;
690 -> 692 ;
693 [label="X[50] <= 0.5\ngini = 0.278\nsamples = 6\nvalue = [5, 1]"] ;
689 -> 693 ;
694 [label="gini = 0.375\nsamples = 4\nvalue = [3, 1]"] ;
693 -> 694 ;
695 [label="gini = 0.0\nsamples = 2\nvalue = [2, 0]"] ;
693 -> 695 ;
696 [label="X[50] <= 0.5\ngini = 0.5\nsamples = 2\nvalue = [1, 1]"] ;
684 -> 696 ;
697 [label="gini = 0.0\nsamples = 1\nvalue = [1, 0]"] ;
696 -> 697 ;
698 [label="gini = 0.0\nsamples = 1\nvalue = [0, 1]"] ;
696 -> 698 ;
699 [label="gini = 0.0\nsamples = 6\nvalue = [6, 0]"] ;
683 -> 699 ;
700 [label="X[59] <= 0.5\ngini = 0.444\nsamples = 3\nvalue = [2, 1]"] ;
682 -> 700 ;
701 [label="gini = 0.5\nsamples = 2\nvalue = [1, 1]"] ;
700 -> 701 ;
702 [label="gini = 0.0\nsamples = 1\nvalue = [1, 0]"] ;
700 -> 702 ;
703 [label="gini = 0.0\nsamples = 13\nvalue = [13, 0]"] ;
681 -> 703 ;
704 [label="X[60] <= 0.5\ngini = 0.051\nsamples = 77\nvalue = [75, 2]"] ;
638 -> 704 ;
705 [label="X[32] <= 0.5\ngini = 0.231\nsamples = 15\nvalue = [13, 2]"] ;
704 -> 705 ;
706 [label="gini = 0.0\nsamples = 8\nvalue = [8, 0]"] ;
705 -> 706 ;
707 [label="X[0] <= 0.5\ngini = 0.408\nsamples = 7\nvalue = [5, 2]"] ;
705 -> 707 ;
708 [label="gini = 0.0\nsamples = 3\nvalue = [3, 0]"] ;
707 -> 708 ;
709 [label="X[1] <= 0.567\ngini = 0.5\nsamples = 4\nvalue = [2, 2]"] ;
707 -> 709 ;
710 [label="gini = 0.0\nsamples = 2\nvalue = [2, 0]"] ;
709 -> 710 ;
711 [label="gini = 0.0\nsamples = 2\nvalue = [0, 2]"] ;
709 -> 711 ;
712 [label="gini = 0.0\nsamples = 62\nvalue = [62, 0]"] ;
704 -> 712 ;
713 [label="X[23] <= 0.5\ngini = 0.375\nsamples = 4\nvalue = [3, 1]"] ;
637 -> 713 ;
714 [label="gini = 0.0\nsamples = 3\nvalue = [3, 0]"] ;
713 -> 714 ;
715 [label="gini = 0.0\nsamples = 1\nvalue = [0, 1]"] ;
713 -> 715 ;
716 [label="X[0] <= 0.678\ngini = 0.298\nsamples = 33\nvalue = [27, 6]"] ;
636 -> 716 ;
717 [label="X[23] <= 0.5\ngini = 0.245\nsamples = 28\nvalue = [24, 4]"] ;
716 -> 717 ;
718 [label="X[0] <= 0.329\ngini = 0.346\nsamples = 18\nvalue = [14, 4]"] ;
717 -> 718 ;
719 [label="gini = 0.0\nsamples = 1\nvalue = [0, 1]"] ;
718 -> 719 ;
720 [label="X[1] <= 0.7\ngini = 0.291\nsamples = 17\nvalue = [14, 3]"] ;
718 -> 720 ;
721 [label="X[56] <= 0.5\ngini = 0.231\nsamples = 15\nvalue = [13, 2]"] ;
720 -> 721 ;
722 [label="X[0] <= 0.445\ngini = 0.142\nsamples = 13\nvalue = [12, 1]"] ;
721 -> 722 ;
723 [label="X[4] <= 0.388\ngini = 0.444\nsamples = 3\nvalue = [2, 1]"] ;
722 -> 723 ;
724 [label="gini = 0.0\nsamples = 2\nvalue = [2, 0]"] ;
723 -> 724 ;
725 [label="gini = 0.0\nsamples = 1\nvalue = [0, 1]"] ;
723 -> 725 ;
726 [label="gini = 0.0\nsamples = 10\nvalue = [10, 0]"] ;
722 -> 726 ;
727 [label="X[20] <= 0.5\ngini = 0.5\nsamples = 2\nvalue = [1, 1]"] ;
721 -> 727 ;
728 [label="gini = 0.0\nsamples = 1\nvalue = [1, 0]"] ;
727 -> 728 ;
729 [label="gini = 0.0\nsamples = 1\nvalue = [0, 1]"] ;
727 -> 729 ;
730 [label="X[53] <= 0.5\ngini = 0.5\nsamples = 2\nvalue = [1, 1]"] ;
720 -> 730 ;
731 [label="gini = 0.0\nsamples = 1\nvalue = [0, 1]"] ;
730 -> 731 ;
732 [label="gini = 0.0\nsamples = 1\nvalue = [1, 0]"] ;
730 -> 732 ;
733 [label="gini = 0.0\nsamples = 10\nvalue = [10, 0]"] ;
717 -> 733 ;
734 [label="X[23] <= 0.5\ngini = 0.48\nsamples = 5\nvalue = [3, 2]"] ;
716 -> 734 ;
735 [label="gini = 0.0\nsamples = 2\nvalue = [2, 0]"] ;
734 -> 735 ;
736 [label="X[0] <= 0.692\ngini = 0.444\nsamples = 3\nvalue = [1, 2]"] ;
734 -> 736 ;
737 [label="X[53] <= 0.5\ngini = 0.5\nsamples = 2\nvalue = [1, 1]"] ;
736 -> 737 ;
738 [label="gini = 0.0\nsamples = 1\nvalue = [1, 0]"] ;
737 -> 738 ;
739 [label="gini = 0.0\nsamples = 1\nvalue = [0, 1]"] ;
737 -> 739 ;
740 [label="gini = 0.0\nsamples = 1\nvalue = [0, 1]"] ;
736 -> 740 ;
741 [label="gini = 0.0\nsamples = 1\nvalue = [0, 1]"] ;
615 -> 741 ;
742 [label="X[2] <= 0.737\ngini = 0.334\nsamples = 33\nvalue = [26, 7]"] ;
190 -> 742 ;
743 [label="gini = 0.0\nsamples = 5\nvalue = [0, 5]"] ;
742 -> 743 ;
744 [label="X[17] <= 0.5\ngini = 0.133\nsamples = 28\nvalue = [26, 2]"] ;
742 -> 744 ;
745 [label="X[47] <= 0.5\ngini = 0.074\nsamples = 26\nvalue = [25, 1]"] ;
744 -> 745 ;
746 [label="gini = 0.0\nsamples = 23\nvalue = [23, 0]"] ;
745 -> 746 ;
747 [label="X[61] <= 0.5\ngini = 0.444\nsamples = 3\nvalue = [2, 1]"] ;
745 -> 747 ;
748 [label="gini = 0.0\nsamples = 2\nvalue = [2, 0]"] ;
747 -> 748 ;
749 [label="gini = 0.0\nsamples = 1\nvalue = [0, 1]"] ;
747 -> 749 ;
750 [label="X[32] <= 0.5\ngini = 0.5\nsamples = 2\nvalue = [1, 1]"] ;
744 -> 750 ;
751 [label="gini = 0.0\nsamples = 1\nvalue = [0, 1]"] ;
750 -> 751 ;
752 [label="gini = 0.0\nsamples = 1\nvalue = [1, 0]"] ;
750 -> 752 ;
753 [label="X[56] <= 0.5\ngini = 0.196\nsamples = 263\nvalue = [234, 29]"] ;
189 -> 753 ;
754 [label="X[4] <= 0.362\ngini = 0.177\nsamples = 255\nvalue = [230, 25]"] ;
753 -> 754 ;
755 [label="X[3] <= 0.439\ngini = 0.053\nsamples = 73\nvalue = [71, 2]"] ;
754 -> 755 ;
756 [label="X[4] <= 0.128\ngini = 0.027\nsamples = 72\nvalue = [71, 1]"] ;
755 -> 756 ;
757 [label="X[4] <= 0.107\ngini = 0.278\nsamples = 6\nvalue = [5, 1]"] ;
756 -> 757 ;
758 [label="gini = 0.0\nsamples = 5\nvalue = [5, 0]"] ;
757 -> 758 ;
759 [label="gini = 0.0\nsamples = 1\nvalue = [0, 1]"] ;
757 -> 759 ;
760 [label="gini = 0.0\nsamples = 66\nvalue = [66, 0]"] ;
756 -> 760 ;
761 [label="gini = 0.0\nsamples = 1\nvalue = [0, 1]"] ;
755 -> 761 ;
762 [label="X[1] <= 0.433\ngini = 0.221\nsamples = 182\nvalue = [159, 23]"] ;
754 -> 762 ;
763 [label="gini = 0.0\nsamples = 1\nvalue = [0, 1]"] ;
762 -> 763 ;
764 [label="X[0] <= 0.568\ngini = 0.214\nsamples = 181\nvalue = [159, 22]"] ;
762 -> 764 ;
765 [label="X[10] <= 0.5\ngini = 0.192\nsamples = 167\nvalue = [149, 18]"] ;
764 -> 765 ;
766 [label="X[4] <= 0.372\ngini = 0.217\nsamples = 145\nvalue = [127, 18]"] ;
765 -> 766 ;
767 [label="gini = 0.0\nsamples = 1\nvalue = [0, 1]"] ;
766 -> 767 ;
768 [label="X[2] <= 0.735\ngini = 0.208\nsamples = 144\nvalue = [127, 17]"] ;
766 -> 768 ;
769 [label="X[0] <= 0.479\ngini = 0.2\nsamples = 142\nvalue = [126, 16]"] ;
768 -> 769 ;
770 [label="X[5] <= 0.5\ngini = 0.222\nsamples = 126\nvalue = [110, 16]"] ;
769 -> 770 ;
771 [label="X[33] <= 0.5\ngini = 0.208\nsamples = 119\nvalue = [105, 14]"] ;
770 -> 771 ;
772 [label="X[72] <= 0.5\ngini = 0.237\nsamples = 102\nvalue = [88, 14]"] ;
771 -> 772 ;
773 [label="X[27] <= 0.5\ngini = 0.226\nsamples = 100\nvalue = [87, 13]"] ;
772 -> 773 ;
774 [label="X[3] <= 0.87\ngini = 0.259\nsamples = 72\nvalue = [61, 11]"] ;
773 -> 774 ;
775 [label="X[31] <= 0.5\ngini = 0.245\nsamples = 70\nvalue = [60, 10]"] ;
774 -> 775 ;
776 [label="X[59] <= 0.5\ngini = 0.23\nsamples = 68\nvalue = [59, 9]"] ;
775 -> 776 ;
777 [label="gini = 0.0\nsamples = 9\nvalue = [9, 0]"] ;
776 -> 777 ;
778 [label="X[52] <= 0.5\ngini = 0.259\nsamples = 59\nvalue = [50, 9]"] ;
776 -> 778 ;
779 [label="X[0] <= 0.445\ngini = 0.241\nsamples = 57\nvalue = [49, 8]"] ;
778 -> 779 ;
780 [label="X[60] <= 0.5\ngini = 0.211\nsamples = 50\nvalue = [44, 6]"] ;
779 -> 780 ;
781 [label="X[34] <= 0.5\ngini = 0.36\nsamples = 17\nvalue = [13, 4]"] ;
780 -> 781 ;
782 [label="X[0] <= 0.253\ngini = 0.305\nsamples = 16\nvalue = [13, 3]"] ;
781 -> 782 ;
783 [label="gini = 0.0\nsamples = 3\nvalue = [3, 0]"] ;
782 -> 783 ;
784 [label="X[0] <= 0.336\ngini = 0.355\nsamples = 13\nvalue = [10, 3]"] ;
782 -> 784 ;
785 [label="X[28] <= 0.5\ngini = 0.397\nsamples = 11\nvalue = [8, 3]"] ;
784 -> 785 ;
786 [label="X[0] <= 0.301\ngini = 0.346\nsamples = 9\nvalue = [7, 2]"] ;
785 -> 786 ;
787 [label="X[23] <= 0.5\ngini = 0.245\nsamples = 7\nvalue = [6, 1]"] ;
786 -> 787 ;
788 [label="gini = 0.0\nsamples = 3\nvalue = [3, 0]"] ;
787 -> 788 ;
789 [label="X[0] <= 0.274\ngini = 0.375\nsamples = 4\nvalue = [3, 1]"] ;
787 -> 789 ;
790 [label="gini = 0.0\nsamples = 1\nvalue = [1, 0]"] ;
789 -> 790 ;
791 [label="gini = 0.444\nsamples = 3\nvalue = [2, 1]"] ;
789 -> 791 ;
792 [label="X[6] <= 0.5\ngini = 0.5\nsamples = 2\nvalue = [1, 1]"] ;
786 -> 792 ;
793 [label="gini = 0.0\nsamples = 1\nvalue = [1, 0]"] ;
792 -> 793 ;
794 [label="gini = 0.0\nsamples = 1\nvalue = [0, 1]"] ;
792 -> 794 ;
795 [label="X[53] <= 0.5\ngini = 0.5\nsamples = 2\nvalue = [1, 1]"] ;
785 -> 795 ;
796 [label="gini = 0.0\nsamples = 1\nvalue = [0, 1]"] ;
795 -> 796 ;
797 [label="gini = 0.0\nsamples = 1\nvalue = [1, 0]"] ;
795 -> 797 ;
798 [label="gini = 0.0\nsamples = 2\nvalue = [2, 0]"] ;
784 -> 798 ;
799 [label="gini = 0.0\nsamples = 1\nvalue = [0, 1]"] ;
781 -> 799 ;
800 [label="X[20] <= 0.5\ngini = 0.114\nsamples = 33\nvalue = [31, 2]"] ;
780 -> 800 ;
801 [label="gini = 0.0\nsamples = 17\nvalue = [17, 0]"] ;
800 -> 801 ;
802 [label="X[0] <= 0.322\ngini = 0.219\nsamples = 16\nvalue = [14, 2]"] ;
800 -> 802 ;
803 [label="X[0] <= 0.301\ngini = 0.346\nsamples = 9\nvalue = [7, 2]"] ;
802 -> 803 ;
804 [label="X[0] <= 0.253\ngini = 0.219\nsamples = 8\nvalue = [7, 1]"] ;
803 -> 804 ;
805 [label="X[0] <= 0.24\ngini = 0.444\nsamples = 3\nvalue = [2, 1]"] ;
804 -> 805 ;
806 [label="gini = 0.0\nsamples = 1\nvalue = [1, 0]"] ;
805 -> 806 ;
807 [label="gini = 0.5\nsamples = 2\nvalue = [1, 1]"] ;
805 -> 807 ;
808 [label="gini = 0.0\nsamples = 5\nvalue = [5, 0]"] ;
804 -> 808 ;
809 [label="gini = 0.0\nsamples = 1\nvalue = [0, 1]"] ;
803 -> 809 ;
810 [label="gini = 0.0\nsamples = 7\nvalue = [7, 0]"] ;
802 -> 810 ;
811 [label="X[20] <= 0.5\ngini = 0.408\nsamples = 7\nvalue = [5, 2]"] ;
779 -> 811 ;
812 [label="X[50] <= 0.5\ngini = 0.278\nsamples = 6\nvalue = [5, 1]"] ;
811 -> 812 ;
813 [label="X[28] <= 0.5\ngini = 0.444\nsamples = 3\nvalue = [2, 1]"] ;
812 -> 813 ;
814 [label="gini = 0.0\nsamples = 1\nvalue = [1, 0]"] ;
813 -> 814 ;
815 [label="X[60] <= 0.5\ngini = 0.5\nsamples = 2\nvalue = [1, 1]"] ;
813 -> 815 ;
816 [label="gini = 0.0\nsamples = 1\nvalue = [1, 0]"] ;
815 -> 816 ;
817 [label="gini = 0.0\nsamples = 1\nvalue = [0, 1]"] ;
815 -> 817 ;
818 [label="gini = 0.0\nsamples = 3\nvalue = [3, 0]"] ;
812 -> 818 ;
819 [label="gini = 0.0\nsamples = 1\nvalue = [0, 1]"] ;
811 -> 819 ;
820 [label="X[28] <= 0.5\ngini = 0.5\nsamples = 2\nvalue = [1, 1]"] ;
778 -> 820 ;
821 [label="gini = 0.0\nsamples = 1\nvalue = [1, 0]"] ;
820 -> 821 ;
822 [label="gini = 0.0\nsamples = 1\nvalue = [0, 1]"] ;
820 -> 822 ;
823 [label="X[50] <= 0.5\ngini = 0.5\nsamples = 2\nvalue = [1, 1]"] ;
775 -> 823 ;
824 [label="gini = 0.0\nsamples = 1\nvalue = [0, 1]"] ;
823 -> 824 ;
825 [label="gini = 0.0\nsamples = 1\nvalue = [1, 0]"] ;
823 -> 825 ;
826 [label="X[32] <= 0.5\ngini = 0.5\nsamples = 2\nvalue = [1, 1]"] ;
774 -> 826 ;
827 [label="gini = 0.0\nsamples = 1\nvalue = [1, 0]"] ;
826 -> 827 ;
828 [label="gini = 0.0\nsamples = 1\nvalue = [0, 1]"] ;
826 -> 828 ;
829 [label="X[0] <= 0.377\ngini = 0.133\nsamples = 28\nvalue = [26, 2]"] ;
773 -> 829 ;
830 [label="gini = 0.0\nsamples = 19\nvalue = [19, 0]"] ;
829 -> 830 ;
831 [label="X[57] <= 0.5\ngini = 0.346\nsamples = 9\nvalue = [7, 2]"] ;
829 -> 831 ;
832 [label="X[61] <= 0.5\ngini = 0.219\nsamples = 8\nvalue = [7, 1]"] ;
831 -> 832 ;
833 [label="gini = 0.0\nsamples = 5\nvalue = [5, 0]"] ;
832 -> 833 ;
834 [label="X[0] <= 0.438\ngini = 0.444\nsamples = 3\nvalue = [2, 1]"] ;
832 -> 834 ;
835 [label="gini = 0.0\nsamples = 1\nvalue = [0, 1]"] ;
834 -> 835 ;
836 [label="gini = 0.0\nsamples = 2\nvalue = [2, 0]"] ;
834 -> 836 ;
837 [label="gini = 0.0\nsamples = 1\nvalue = [0, 1]"] ;
831 -> 837 ;
838 [label="X[28] <= 0.5\ngini = 0.5\nsamples = 2\nvalue = [1, 1]"] ;
772 -> 838 ;
839 [label="gini = 0.0\nsamples = 1\nvalue = [1, 0]"] ;
838 -> 839 ;
840 [label="gini = 0.0\nsamples = 1\nvalue = [0, 1]"] ;
838 -> 840 ;
841 [label="gini = 0.0\nsamples = 17\nvalue = [17, 0]"] ;
771 -> 841 ;
842 [label="X[28] <= 0.5\ngini = 0.408\nsamples = 7\nvalue = [5, 2]"] ;
770 -> 842 ;
843 [label="gini = 0.0\nsamples = 2\nvalue = [0, 2]"] ;
842 -> 843 ;
844 [label="gini = 0.0\nsamples = 5\nvalue = [5, 0]"] ;
842 -> 844 ;
845 [label="gini = 0.0\nsamples = 16\nvalue = [16, 0]"] ;
769 -> 845 ;
846 [label="X[1] <= 0.667\ngini = 0.5\nsamples = 2\nvalue = [1, 1]"] ;
768 -> 846 ;
847 [label="gini = 0.0\nsamples = 1\nvalue = [0, 1]"] ;
846 -> 847 ;
848 [label="gini = 0.0\nsamples = 1\nvalue = [1, 0]"] ;
846 -> 848 ;
849 [label="gini = 0.0\nsamples = 22\nvalue = [22, 0]"] ;
765 -> 849 ;
850 [label="X[32] <= 0.5\ngini = 0.408\nsamples = 14\nvalue = [10, 4]"] ;
764 -> 850 ;
851 [label="X[1] <= 0.633\ngini = 0.298\nsamples = 11\nvalue = [9, 2]"] ;
850 -> 851 ;
852 [label="gini = 0.0\nsamples = 7\nvalue = [7, 0]"] ;
851 -> 852 ;
853 [label="X[7] <= 0.5\ngini = 0.5\nsamples = 4\nvalue = [2, 2]"] ;
851 -> 853 ;
854 [label="gini = 0.0\nsamples = 2\nvalue = [0, 2]"] ;
853 -> 854 ;
855 [label="gini = 0.0\nsamples = 2\nvalue = [2, 0]"] ;
853 -> 855 ;
856 [label="X[7] <= 0.5\ngini = 0.444\nsamples = 3\nvalue = [1, 2]"] ;
850 -> 856 ;
857 [label="gini = 0.0\nsamples = 1\nvalue = [1, 0]"] ;
856 -> 857 ;
858 [label="gini = 0.0\nsamples = 2\nvalue = [0, 2]"] ;
856 -> 858 ;
859 [label="X[100] <= 0.5\ngini = 0.5\nsamples = 8\nvalue = [4, 4]"] ;
753 -> 859 ;
860 [label="gini = 0.0\nsamples = 3\nvalue = [0, 3]"] ;
859 -> 860 ;
861 [label="X[50] <= 0.5\ngini = 0.32\nsamples = 5\nvalue = [4, 1]"] ;
859 -> 861 ;
862 [label="gini = 0.0\nsamples = 4\nvalue = [4, 0]"] ;
861 -> 862 ;
863 [label="gini = 0.0\nsamples = 1\nvalue = [0, 1]"] ;
861 -> 863 ;
864 [label="X[0] <= 0.158\ngini = 0.118\nsamples = 2772\nvalue = [2597, 175]"] ;
4 -> 864 ;
865 [label="X[38] <= 0.5\ngini = 0.037\nsamples = 855\nvalue = [839, 16]"] ;
864 -> 865 ;
866 [label="X[93] <= 0.5\ngini = 0.023\nsamples = 783\nvalue = [774, 9]"] ;
865 -> 866 ;
867 [label="X[63] <= 0.5\ngini = 0.02\nsamples = 781\nvalue = [773, 8]"] ;
866 -> 867 ;
868 [label="X[56] <= 0.5\ngini = 0.018\nsamples = 777\nvalue = [770, 7]"] ;
867 -> 868 ;
869 [label="X[6] <= 0.5\ngini = 0.013\nsamples = 760\nvalue = [755, 5]"] ;
868 -> 869 ;
870 [label="X[17] <= 0.5\ngini = 0.008\nsamples = 735\nvalue = [732, 3]"] ;
869 -> 870 ;
871 [label="X[0] <= 0.13\ngini = 0.006\nsamples = 721\nvalue = [719, 2]"] ;
870 -> 871 ;
872 [label="gini = 0.0\nsamples = 563\nvalue = [563, 0]"] ;
871 -> 872 ;
873 [label="X[42] <= 0.5\ngini = 0.025\nsamples = 158\nvalue = [156, 2]"] ;
871 -> 873 ;
874 [label="X[46] <= 0.5\ngini = 0.014\nsamples = 139\nvalue = [138, 1]"] ;
873 -> 874 ;
875 [label="gini = 0.0\nsamples = 105\nvalue = [105, 0]"] ;
874 -> 875 ;
876 [label="X[23] <= 0.5\ngini = 0.057\nsamples = 34\nvalue = [33, 1]"] ;
874 -> 876 ;
877 [label="gini = 0.0\nsamples = 18\nvalue = [18, 0]"] ;
876 -> 877 ;
878 [label="X[50] <= 0.5\ngini = 0.117\nsamples = 16\nvalue = [15, 1]"] ;
876 -> 878 ;
879 [label="gini = 0.0\nsamples = 9\nvalue = [9, 0]"] ;
878 -> 879 ;
880 [label="X[7] <= 0.5\ngini = 0.245\nsamples = 7\nvalue = [6, 1]"] ;
878 -> 880 ;
881 [label="gini = 0.0\nsamples = 3\nvalue = [3, 0]"] ;
880 -> 881 ;
882 [label="X[61] <= 0.5\ngini = 0.375\nsamples = 4\nvalue = [3, 1]"] ;
880 -> 882 ;
883 [label="gini = 0.0\nsamples = 2\nvalue = [2, 0]"] ;
882 -> 883 ;
884 [label="gini = 0.5\nsamples = 2\nvalue = [1, 1]"] ;
882 -> 884 ;
885 [label="X[23] <= 0.5\ngini = 0.1\nsamples = 19\nvalue = [18, 1]"] ;
873 -> 885 ;
886 [label="gini = 0.0\nsamples = 11\nvalue = [11, 0]"] ;
885 -> 886 ;
887 [label="X[4] <= 0.49\ngini = 0.219\nsamples = 8\nvalue = [7, 1]"] ;
885 -> 887 ;
888 [label="gini = 0.0\nsamples = 5\nvalue = [5, 0]"] ;
887 -> 888 ;
889 [label="X[4] <= 0.51\ngini = 0.444\nsamples = 3\nvalue = [2, 1]"] ;
887 -> 889 ;
890 [label="gini = 0.0\nsamples = 1\nvalue = [0, 1]"] ;
889 -> 890 ;
891 [label="gini = 0.0\nsamples = 2\nvalue = [2, 0]"] ;
889 -> 891 ;
892 [label="X[0] <= 0.034\ngini = 0.133\nsamples = 14\nvalue = [13, 1]"] ;
870 -> 892 ;
893 [label="X[50] <= 0.5\ngini = 0.5\nsamples = 2\nvalue = [1, 1]"] ;
892 -> 893 ;
894 [label="gini = 0.0\nsamples = 1\nvalue = [1, 0]"] ;
893 -> 894 ;
895 [label="gini = 0.0\nsamples = 1\nvalue = [0, 1]"] ;
893 -> 895 ;
896 [label="gini = 0.0\nsamples = 12\nvalue = [12, 0]"] ;
892 -> 896 ;
897 [label="X[0] <= 0.11\ngini = 0.147\nsamples = 25\nvalue = [23, 2]"] ;
869 -> 897 ;
898 [label="gini = 0.0\nsamples = 18\nvalue = [18, 0]"] ;
897 -> 898 ;
899 [label="X[1] <= 0.567\ngini = 0.408\nsamples = 7\nvalue = [5, 2]"] ;
897 -> 899 ;
900 [label="gini = 0.0\nsamples = 4\nvalue = [4, 0]"] ;
899 -> 900 ;
901 [label="X[4] <= 0.816\ngini = 0.444\nsamples = 3\nvalue = [1, 2]"] ;
899 -> 901 ;
902 [label="gini = 0.0\nsamples = 2\nvalue = [0, 2]"] ;
901 -> 902 ;
903 [label="gini = 0.0\nsamples = 1\nvalue = [1, 0]"] ;
901 -> 903 ;
904 [label="X[9] <= 0.5\ngini = 0.208\nsamples = 17\nvalue = [15, 2]"] ;
868 -> 904 ;
905 [label="X[41] <= 0.5\ngini = 0.117\nsamples = 16\nvalue = [15, 1]"] ;
904 -> 905 ;
906 [label="gini = 0.0\nsamples = 15\nvalue = [15, 0]"] ;
905 -> 906 ;
907 [label="gini = 0.0\nsamples = 1\nvalue = [0, 1]"] ;
905 -> 907 ;
908 [label="gini = 0.0\nsamples = 1\nvalue = [0, 1]"] ;
904 -> 908 ;
909 [label="X[0] <= 0.103\ngini = 0.375\nsamples = 4\nvalue = [3, 1]"] ;
867 -> 909 ;
910 [label="gini = 0.0\nsamples = 3\nvalue = [3, 0]"] ;
909 -> 910 ;
911 [label="gini = 0.0\nsamples = 1\nvalue = [0, 1]"] ;
909 -> 911 ;
912 [label="X[53] <= 0.5\ngini = 0.5\nsamples = 2\nvalue = [1, 1]"] ;
866 -> 912 ;
913 [label="gini = 0.0\nsamples = 1\nvalue = [1, 0]"] ;
912 -> 913 ;
914 [label="gini = 0.0\nsamples = 1\nvalue = [0, 1]"] ;
912 -> 914 ;
915 [label="X[4] <= 0.592\ngini = 0.176\nsamples = 72\nvalue = [65, 7]"] ;
865 -> 915 ;
916 [label="X[28] <= 0.5\ngini = 0.035\nsamples = 56\nvalue = [55, 1]"] ;
915 -> 916 ;
917 [label="gini = 0.0\nsamples = 49\nvalue = [49, 0]"] ;
916 -> 917 ;
918 [label="X[0] <= 0.11\ngini = 0.245\nsamples = 7\nvalue = [6, 1]"] ;
916 -> 918 ;
919 [label="X[4] <= 0.474\ngini = 0.444\nsamples = 3\nvalue = [2, 1]"] ;
918 -> 919 ;
920 [label="gini = 0.0\nsamples = 1\nvalue = [0, 1]"] ;
919 -> 920 ;
921 [label="gini = 0.0\nsamples = 2\nvalue = [2, 0]"] ;
919 -> 921 ;
922 [label="gini = 0.0\nsamples = 4\nvalue = [4, 0]"] ;
918 -> 922 ;
923 [label="X[7] <= 0.5\ngini = 0.469\nsamples = 16\nvalue = [10, 6]"] ;
915 -> 923 ;
924 [label="X[61] <= 0.5\ngini = 0.32\nsamples = 5\nvalue = [1, 4]"] ;
923 -> 924 ;
925 [label="gini = 0.0\nsamples = 1\nvalue = [1, 0]"] ;
924 -> 925 ;
926 [label="gini = 0.0\nsamples = 4\nvalue = [0, 4]"] ;
924 -> 926 ;
927 [label="X[1] <= 0.633\ngini = 0.298\nsamples = 11\nvalue = [9, 2]"] ;
923 -> 927 ;
928 [label="gini = 0.0\nsamples = 8\nvalue = [8, 0]"] ;
927 -> 928 ;
929 [label="X[60] <= 0.5\ngini = 0.444\nsamples = 3\nvalue = [1, 2]"] ;
927 -> 929 ;
930 [label="gini = 0.0\nsamples = 2\nvalue = [0, 2]"] ;
929 -> 930 ;
931 [label="gini = 0.0\nsamples = 1\nvalue = [1, 0]"] ;
929 -> 931 ;
932 [label="X[2] <= 0.734\ngini = 0.152\nsamples = 1917\nvalue = [1758, 159]"] ;
864 -> 932 ;
933 [label="X[1] <= 0.567\ngini = 0.146\nsamples = 1892\nvalue = [1742, 150]"] ;
932 -> 933 ;
934 [label="X[54] <= 0.5\ngini = 0.102\nsamples = 1052\nvalue = [995, 57]"] ;
933 -> 934 ;
935 [label="X[61] <= 0.5\ngini = 0.101\nsamples = 1051\nvalue = [995, 56]"] ;
934 -> 935 ;
936 [label="X[73] <= 0.5\ngini = 0.031\nsamples = 383\nvalue = [377, 6]"] ;
935 -> 936 ;
937 [label="X[4] <= 0.985\ngini = 0.026\nsamples = 382\nvalue = [377, 5]"] ;
936 -> 937 ;
938 [label="X[47] <= 0.5\ngini = 0.021\nsamples = 377\nvalue = [373, 4]"] ;
937 -> 938 ;
939 [label="X[4] <= 0.597\ngini = 0.016\nsamples = 368\nvalue = [365, 3]"] ;
938 -> 939 ;
940 [label="gini = 0.0\nsamples = 299\nvalue = [299, 0]"] ;
939 -> 940 ;
941 [label="X[37] <= 0.5\ngini = 0.083\nsamples = 69\nvalue = [66, 3]"] ;
939 -> 941 ;
942 [label="X[31] <= 0.5\ngini = 0.057\nsamples = 68\nvalue = [66, 2]"] ;
941 -> 942 ;
943 [label="X[46] <= 0.5\ngini = 0.031\nsamples = 63\nvalue = [62, 1]"] ;
942 -> 943 ;
944 [label="gini = 0.0\nsamples = 56\nvalue = [56, 0]"] ;
943 -> 944 ;
945 [label="X[53] <= 0.5\ngini = 0.245\nsamples = 7\nvalue = [6, 1]"] ;
943 -> 945 ;
946 [label="X[32] <= 0.5\ngini = 0.444\nsamples = 3\nvalue = [2, 1]"] ;
945 -> 946 ;
947 [label="gini = 0.0\nsamples = 2\nvalue = [2, 0]"] ;
946 -> 947 ;
948 [label="gini = 0.0\nsamples = 1\nvalue = [0, 1]"] ;
946 -> 948 ;
949 [label="gini = 0.0\nsamples = 4\nvalue = [4, 0]"] ;
945 -> 949 ;
950 [label="X[0] <= 0.308\ngini = 0.32\nsamples = 5\nvalue = [4, 1]"] ;
942 -> 950 ;
951 [label="gini = 0.0\nsamples = 3\nvalue = [3, 0]"] ;
950 -> 951 ;
952 [label="X[48] <= 0.5\ngini = 0.5\nsamples = 2\nvalue = [1, 1]"] ;
950 -> 952 ;
953 [label="gini = 0.0\nsamples = 1\nvalue = [0, 1]"] ;
952 -> 953 ;
954 [label="gini = 0.0\nsamples = 1\nvalue = [1, 0]"] ;
952 -> 954 ;
955 [label="gini = 0.0\nsamples = 1\nvalue = [0, 1]"] ;
941 -> 955 ;
956 [label="X[28] <= 0.5\ngini = 0.198\nsamples = 9\nvalue = [8, 1]"] ;
938 -> 956 ;
957 [label="gini = 0.0\nsamples = 4\nvalue = [4, 0]"] ;
956 -> 957 ;
958 [label="X[50] <= 0.5\ngini = 0.32\nsamples = 5\nvalue = [4, 1]"] ;
956 -> 958 ;
959 [label="gini = 0.0\nsamples = 3\nvalue = [3, 0]"] ;
958 -> 959 ;
960 [label="X[0] <= 0.39\ngini = 0.5\nsamples = 2\nvalue = [1, 1]"] ;
958 -> 960 ;
961 [label="gini = 0.0\nsamples = 1\nvalue = [0, 1]"] ;
960 -> 961 ;
962 [label="gini = 0.0\nsamples = 1\nvalue = [1, 0]"] ;
960 -> 962 ;
963 [label="X[0] <= 0.397\ngini = 0.32\nsamples = 5\nvalue = [4, 1]"] ;
937 -> 963 ;
964 [label="X[0] <= 0.178\ngini = 0.5\nsamples = 2\nvalue = [1, 1]"] ;
963 -> 964 ;
965 [label="gini = 0.0\nsamples = 1\nvalue = [1, 0]"] ;
964 -> 965 ;
966 [label="gini = 0.0\nsamples = 1\nvalue = [0, 1]"] ;
964 -> 966 ;
967 [label="gini = 0.0\nsamples = 3\nvalue = [3, 0]"] ;
963 -> 967 ;
968 [label="gini = 0.0\nsamples = 1\nvalue = [0, 1]"] ;
936 -> 968 ;
969 [label="X[0] <= 0.473\ngini = 0.138\nsamples = 668\nvalue = [618, 50]"] ;
935 -> 969 ;
970 [label="X[46] <= 0.5\ngini = 0.113\nsamples = 567\nvalue = [533, 34]"] ;
969 -> 970 ;
971 [label="X[80] <= 0.5\ngini = 0.092\nsamples = 518\nvalue = [493, 25]"] ;
970 -> 971 ;
972 [label="X[50] <= 0.5\ngini = 0.089\nsamples = 516\nvalue = [492, 24]"] ;
971 -> 972 ;
973 [label="X[51] <= 0.5\ngini = 0.013\nsamples = 155\nvalue = [154, 1]"] ;
972 -> 973 ;
974 [label="gini = 0.0\nsamples = 136\nvalue = [136, 0]"] ;
973 -> 974 ;
975 [label="X[28] <= 0.5\ngini = 0.1\nsamples = 19\nvalue = [18, 1]"] ;
973 -> 975 ;
976 [label="gini = 0.0\nsamples = 15\nvalue = [15, 0]"] ;
975 -> 976 ;
977 [label="X[37] <= 0.5\ngini = 0.375\nsamples = 4\nvalue = [3, 1]"] ;
975 -> 977 ;
978 [label="gini = 0.0\nsamples = 3\nvalue = [3, 0]"] ;
977 -> 978 ;
979 [label="gini = 0.0\nsamples = 1\nvalue = [0, 1]"] ;
977 -> 979 ;
980 [label="X[7] <= 0.5\ngini = 0.119\nsamples = 361\nvalue = [338, 23]"] ;
972 -> 980 ;
981 [label="X[72] <= 0.5\ngini = 0.224\nsamples = 78\nvalue = [68, 10]"] ;
980 -> 981 ;
982 [label="X[0] <= 0.185\ngini = 0.206\nsamples = 77\nvalue = [68, 9]"] ;
981 -> 982 ;
983 [label="X[37] <= 0.5\ngini = 0.42\nsamples = 10\nvalue = [7, 3]"] ;
982 -> 983 ;
984 [label="gini = 0.0\nsamples = 4\nvalue = [4, 0]"] ;
983 -> 984 ;
985 [label="X[23] <= 0.5\ngini = 0.5\nsamples = 6\nvalue = [3, 3]"] ;
983 -> 985 ;
986 [label="gini = 0.0\nsamples = 1\nvalue = [0, 1]"] ;
985 -> 986 ;
987 [label="X[4] <= 0.474\ngini = 0.48\nsamples = 5\nvalue = [3, 2]"] ;
985 -> 987 ;
988 [label="gini = 0.0\nsamples = 2\nvalue = [2, 0]"] ;
987 -> 988 ;
989 [label="gini = 0.444\nsamples = 3\nvalue = [1, 2]"] ;
987 -> 989 ;
990 [label="X[35] <= 0.5\ngini = 0.163\nsamples = 67\nvalue = [61, 6]"] ;
982 -> 990 ;
991 [label="X[4] <= 0.582\ngini = 0.14\nsamples = 66\nvalue = [61, 5]"] ;
990 -> 991 ;
992 [label="X[0] <= 0.199\ngini = 0.045\nsamples = 43\nvalue = [42, 1]"] ;
991 -> 992 ;
993 [label="X[28] <= 0.5\ngini = 0.375\nsamples = 4\nvalue = [3, 1]"] ;
992 -> 993 ;
994 [label="gini = 0.0\nsamples = 3\nvalue = [3, 0]"] ;
993 -> 994 ;
995 [label="gini = 0.0\nsamples = 1\nvalue = [0, 1]"] ;
993 -> 995 ;
996 [label="gini = 0.0\nsamples = 39\nvalue = [39, 0]"] ;
992 -> 996 ;
997 [label="X[37] <= 0.5\ngini = 0.287\nsamples = 23\nvalue = [19, 4]"] ;
991 -> 997 ;
998 [label="X[38] <= 0.5\ngini = 0.18\nsamples = 20\nvalue = [18, 2]"] ;
997 -> 998 ;
999 [label="X[4] <= 0.679\ngini = 0.105\nsamples = 18\nvalue = [17, 1]"] ;
998 -> 999 ;
1000 [label="gini = 0.0\nsamples = 11\nvalue = [11, 0]"] ;
999 -> 1000 ;
1001 [label="X[0] <= 0.267\ngini = 0.245\nsamples = 7\nvalue = [6, 1]"] ;
999 -> 1001 ;
1002 [label="X[32] <= 0.5\ngini = 0.5\nsamples = 2\nvalue = [1, 1]"] ;
1001 -> 1002 ;
1003 [label="gini = 0.0\nsamples = 1\nvalue = [1, 0]"] ;
1002 -> 1003 ;
1004 [label="gini = 0.0\nsamples = 1\nvalue = [0, 1]"] ;
1002 -> 1004 ;
1005 [label="gini = 0.0\nsamples = 5\nvalue = [5, 0]"] ;
1001 -> 1005 ;
1006 [label="X[32] <= 0.5\ngini = 0.5\nsamples = 2\nvalue = [1, 1]"] ;
998 -> 1006 ;
1007 [label="gini = 0.0\nsamples = 1\nvalue = [0, 1]"] ;
1006 -> 1007 ;
1008 [label="gini = 0.0\nsamples = 1\nvalue = [1, 0]"] ;
1006 -> 1008 ;
1009 [label="X[0] <= 0.205\ngini = 0.444\nsamples = 3\nvalue = [1, 2]"] ;
997 -> 1009 ;
1010 [label="gini = 0.0\nsamples = 1\nvalue = [1, 0]"] ;
1009 -> 1010 ;
1011 [label="gini = 0.0\nsamples = 2\nvalue = [0, 2]"] ;
1009 -> 1011 ;
1012 [label="gini = 0.0\nsamples = 1\nvalue = [0, 1]"] ;
990 -> 1012 ;
1013 [label="gini = 0.0\nsamples = 1\nvalue = [0, 1]"] ;
981 -> 1013 ;
1014 [label="X[70] <= 0.5\ngini = 0.088\nsamples = 283\nvalue = [270, 13]"] ;
980 -> 1014 ;
1015 [label="X[55] <= 0.5\ngini = 0.082\nsamples = 281\nvalue = [269, 12]"] ;
1014 -> 1015 ;
1016 [label="X[14] <= 0.5\ngini = 0.076\nsamples = 278\nvalue = [267, 11]"] ;
1015 -> 1016 ;
1017 [label="X[0] <= 0.295\ngini = 0.07\nsamples = 275\nvalue = [265, 10]"] ;
1016 -> 1017 ;
1018 [label="X[35] <= 0.5\ngini = 0.035\nsamples = 169\nvalue = [166, 3]"] ;
1017 -> 1018 ;
1019 [label="X[0] <= 0.199\ngini = 0.024\nsamples = 162\nvalue = [160, 2]"] ;
1018 -> 1019 ;
1020 [label="X[48] <= 0.5\ngini = 0.069\nsamples = 56\nvalue = [54, 2]"] ;
1019 -> 1020 ;
1021 [label="X[0] <= 0.185\ngini = 0.042\nsamples = 47\nvalue = [46, 1]"] ;
1020 -> 1021 ;
1022 [label="gini = 0.0\nsamples = 30\nvalue = [30, 0]"] ;
1021 -> 1022 ;
1023 [label="X[37] <= 0.5\ngini = 0.111\nsamples = 17\nvalue = [16, 1]"] ;
1021 -> 1023 ;
1024 [label="gini = 0.0\nsamples = 11\nvalue = [11, 0]"] ;
1023 -> 1024 ;
1025 [label="X[4] <= 0.474\ngini = 0.278\nsamples = 6\nvalue = [5, 1]"] ;
1023 -> 1025 ;
1026 [label="gini = 0.0\nsamples = 4\nvalue = [4, 0]"] ;
1025 -> 1026 ;
1027 [label="gini = 0.5\nsamples = 2\nvalue = [1, 1]"] ;
1025 -> 1027 ;
1028 [label="X[4] <= 0.474\ngini = 0.198\nsamples = 9\nvalue = [8, 1]"] ;
1020 -> 1028 ;
1029 [label="X[32] <= 0.5\ngini = 0.375\nsamples = 4\nvalue = [3, 1]"] ;
1028 -> 1029 ;
1030 [label="gini = 0.0\nsamples = 3\nvalue = [3, 0]"] ;
1029 -> 1030 ;
1031 [label="gini = 0.0\nsamples = 1\nvalue = [0, 1]"] ;
1029 -> 1031 ;
1032 [label="gini = 0.0\nsamples = 5\nvalue = [5, 0]"] ;
1028 -> 1032 ;
1033 [label="gini = 0.0\nsamples = 106\nvalue = [106, 0]"] ;
1019 -> 1033 ;
1034 [label="X[33] <= 0.5\ngini = 0.245\nsamples = 7\nvalue = [6, 1]"] ;
1018 -> 1034 ;
1035 [label="gini = 0.0\nsamples = 4\nvalue = [4, 0]"] ;
1034 -> 1035 ;
1036 [label="X[0] <= 0.226\ngini = 0.444\nsamples = 3\nvalue = [2, 1]"] ;
1034 -> 1036 ;
1037 [label="gini = 0.0\nsamples = 2\nvalue = [2, 0]"] ;
1036 -> 1037 ;
1038 [label="gini = 0.0\nsamples = 1\nvalue = [0, 1]"] ;
1036 -> 1038 ;
1039 [label="X[4] <= 0.434\ngini = 0.123\nsamples = 106\nvalue = [99, 7]"] ;
1017 -> 1039 ;
1040 [label="X[37] <= 0.5\ngini = 0.444\nsamples = 6\nvalue = [4, 2]"] ;
1039 -> 1040 ;
1041 [label="gini = 0.0\nsamples = 3\nvalue = [3, 0]"] ;
1040 -> 1041 ;
1042 [label="X[0] <= 0.377\ngini = 0.444\nsamples = 3\nvalue = [1, 2]"] ;
1040 -> 1042 ;
1043 [label="gini = 0.0\nsamples = 2\nvalue = [0, 2]"] ;
1042 -> 1043 ;
1044 [label="gini = 0.0\nsamples = 1\nvalue = [1, 0]"] ;
1042 -> 1044 ;
1045 [label="X[47] <= 0.5\ngini = 0.095\nsamples = 100\nvalue = [95, 5]"] ;
1039 -> 1045 ;
1046 [label="X[3] <= 0.439\ngini = 0.078\nsamples = 98\nvalue = [94, 4]"] ;
1045 -> 1046 ;
1047 [label="X[4] <= 0.74\ngini = 0.062\nsamples = 93\nvalue = [90, 3]"] ;
1046 -> 1047 ;
1048 [label="X[38] <= 0.5\ngini = 0.044\nsamples = 88\nvalue = [86, 2]"] ;
1047 -> 1048 ;
1049 [label="X[4] <= 0.577\ngini = 0.025\nsamples = 79\nvalue = [78, 1]"] ;
1048 -> 1049 ;
1050 [label="gini = 0.0\nsamples = 63\nvalue = [63, 0]"] ;
1049 -> 1050 ;
1051 [label="X[48] <= 0.5\ngini = 0.117\nsamples = 16\nvalue = [15, 1]"] ;
1049 -> 1051 ;
1052 [label="gini = 0.0\nsamples = 12\nvalue = [12, 0]"] ;
1051 -> 1052 ;
1053 [label="X[4] <= 0.628\ngini = 0.375\nsamples = 4\nvalue = [3, 1]"] ;
1051 -> 1053 ;
1054 [label="gini = 0.0\nsamples = 1\nvalue = [0, 1]"] ;
1053 -> 1054 ;
1055 [label="gini = 0.0\nsamples = 3\nvalue = [3, 0]"] ;
1053 -> 1055 ;
1056 [label="X[0] <= 0.37\ngini = 0.198\nsamples = 9\nvalue = [8, 1]"] ;
1048 -> 1056 ;
1057 [label="gini = 0.0\nsamples = 5\nvalue = [5, 0]"] ;
1056 -> 1057 ;
1058 [label="X[4] <= 0.464\ngini = 0.375\nsamples = 4\nvalue = [3, 1]"] ;
1056 -> 1058 ;
1059 [label="gini = 0.0\nsamples = 3\nvalue = [3, 0]"] ;
1058 -> 1059 ;
1060 [label="gini = 0.0\nsamples = 1\nvalue = [0, 1]"] ;
1058 -> 1060 ;
1061 [label="X[4] <= 0.781\ngini = 0.32\nsamples = 5\nvalue = [4, 1]"] ;
1047 -> 1061 ;
1062 [label="gini = 0.0\nsamples = 1\nvalue = [0, 1]"] ;
1061 -> 1062 ;
1063 [label="gini = 0.0\nsamples = 4\nvalue = [4, 0]"] ;
1061 -> 1063 ;
1064 [label="X[3] <= 0.879\ngini = 0.32\nsamples = 5\nvalue = [4, 1]"] ;
1046 -> 1064 ;
1065 [label="gini = 0.0\nsamples = 1\nvalue = [0, 1]"] ;
1064 -> 1065 ;
1066 [label="gini = 0.0\nsamples = 4\nvalue = [4, 0]"] ;
1064 -> 1066 ;
1067 [label="X[32] <= 0.5\ngini = 0.5\nsamples = 2\nvalue = [1, 1]"] ;
1045 -> 1067 ;
1068 [label="gini = 0.0\nsamples = 1\nvalue = [0, 1]"] ;
1067 -> 1068 ;
1069 [label="gini = 0.0\nsamples = 1\nvalue = [1, 0]"] ;
1067 -> 1069 ;
1070 [label="X[4] <= 0.724\ngini = 0.444\nsamples = 3\nvalue = [2, 1]"] ;
1016 -> 1070 ;
1071 [label="gini = 0.0\nsamples = 2\nvalue = [2, 0]"] ;
1070 -> 1071 ;
1072 [label="gini = 0.0\nsamples = 1\nvalue = [0, 1]"] ;
1070 -> 1072 ;
1073 [label="X[0] <= 0.212\ngini = 0.444\nsamples = 3\nvalue = [2, 1]"] ;
1015 -> 1073 ;
1074 [label="gini = 0.0\nsamples = 1\nvalue = [1, 0]"] ;
1073 -> 1074 ;
1075 [label="X[0] <= 0.26\ngini = 0.5\nsamples = 2\nvalue = [1, 1]"] ;
1073 -> 1075 ;
1076 [label="gini = 0.0\nsamples = 1\nvalue = [0, 1]"] ;
1075 -> 1076 ;
1077 [label="gini = 0.0\nsamples = 1\nvalue = [1, 0]"] ;
1075 -> 1077 ;
1078 [label="X[0] <= 0.267\ngini = 0.5\nsamples = 2\nvalue = [1, 1]"] ;
1014 -> 1078 ;
1079 [label="gini = 0.0\nsamples = 1\nvalue = [1, 0]"] ;
1078 -> 1079 ;
1080 [label="gini = 0.0\nsamples = 1\nvalue = [0, 1]"] ;
1078 -> 1080 ;
1081 [label="X[3] <= 0.439\ngini = 0.5\nsamples = 2\nvalue = [1, 1]"] ;
971 -> 1081 ;
1082 [label="gini = 0.0\nsamples = 1\nvalue = [1, 0]"] ;
1081 -> 1082 ;
1083 [label="gini = 0.0\nsamples = 1\nvalue = [0, 1]"] ;
1081 -> 1083 ;
1084 [label="X[4] <= 0.439\ngini = 0.3\nsamples = 49\nvalue = [40, 9]"] ;
970 -> 1084 ;
1085 [label="X[0] <= 0.212\ngini = 0.444\nsamples = 3\nvalue = [1, 2]"] ;
1084 -> 1085 ;
1086 [label="gini = 0.0\nsamples = 2\nvalue = [0, 2]"] ;
1085 -> 1086 ;
1087 [label="gini = 0.0\nsamples = 1\nvalue = [1, 0]"] ;
1085 -> 1087 ;
1088 [label="X[4] <= 0.49\ngini = 0.258\nsamples = 46\nvalue = [39, 7]"] ;
1084 -> 1088 ;
1089 [label="gini = 0.0\nsamples = 11\nvalue = [11, 0]"] ;
1088 -> 1089 ;
1090 [label="X[0] <= 0.226\ngini = 0.32\nsamples = 35\nvalue = [28, 7]"] ;
1088 -> 1090 ;
1091 [label="gini = 0.0\nsamples = 8\nvalue = [8, 0]"] ;
1090 -> 1091 ;
1092 [label="X[9] <= 0.5\ngini = 0.384\nsamples = 27\nvalue = [20, 7]"] ;
1090 -> 1092 ;
1093 [label="X[50] <= 0.5\ngini = 0.33\nsamples = 24\nvalue = [19, 5]"] ;
1092 -> 1093 ;
1094 [label="X[0] <= 0.267\ngini = 0.48\nsamples = 5\nvalue = [3, 2]"] ;
1093 -> 1094 ;
1095 [label="gini = 0.0\nsamples = 2\nvalue = [0, 2]"] ;
1094 -> 1095 ;
1096 [label="gini = 0.0\nsamples = 3\nvalue = [3, 0]"] ;
1094 -> 1096 ;
1097 [label="X[0] <= 0.281\ngini = 0.266\nsamples = 19\nvalue = [16, 3]"] ;
1093 -> 1097 ;
1098 [label="gini = 0.0\nsamples = 5\nvalue = [5, 0]"] ;
1097 -> 1098 ;
1099 [label="X[0] <= 0.356\ngini = 0.337\nsamples = 14\nvalue = [11, 3]"] ;
1097 -> 1099 ;
1100 [label="X[0] <= 0.336\ngini = 0.42\nsamples = 10\nvalue = [7, 3]"] ;
1099 -> 1100 ;
1101 [label="X[28] <= 0.5\ngini = 0.346\nsamples = 9\nvalue = [7, 2]"] ;
1100 -> 1101 ;
1102 [label="gini = 0.0\nsamples = 4\nvalue = [4, 0]"] ;
1101 -> 1102 ;
1103 [label="X[4] <= 0.704\ngini = 0.48\nsamples = 5\nvalue = [3, 2]"] ;
1101 -> 1103 ;
1104 [label="X[0] <= 0.295\ngini = 0.5\nsamples = 4\nvalue = [2, 2]"] ;
1103 -> 1104 ;
1105 [label="gini = 0.0\nsamples = 1\nvalue = [0, 1]"] ;
1104 -> 1105 ;
1106 [label="X[4] <= 0.551\ngini = 0.444\nsamples = 3\nvalue = [2, 1]"] ;
1104 -> 1106 ;
1107 [label="gini = 0.0\nsamples = 1\nvalue = [1, 0]"] ;
1106 -> 1107 ;
1108 [label="X[0] <= 0.308\ngini = 0.5\nsamples = 2\nvalue = [1, 1]"] ;
1106 -> 1108 ;
1109 [label="gini = 0.0\nsamples = 1\nvalue = [1, 0]"] ;
1108 -> 1109 ;
1110 [label="gini = 0.0\nsamples = 1\nvalue = [0, 1]"] ;
1108 -> 1110 ;
1111 [label="gini = 0.0\nsamples = 1\nvalue = [1, 0]"] ;
1103 -> 1111 ;
1112 [label="gini = 0.0\nsamples = 1\nvalue = [0, 1]"] ;
1100 -> 1112 ;
1113 [label="gini = 0.0\nsamples = 4\nvalue = [4, 0]"] ;
1099 -> 1113 ;
1114 [label="X[0] <= 0.308\ngini = 0.444\nsamples = 3\nvalue = [1, 2]"] ;
1092 -> 1114 ;
1115 [label="gini = 0.0\nsamples = 1\nvalue = [0, 1]"] ;
1114 -> 1115 ;
1116 [label="X[0] <= 0.404\ngini = 0.5\nsamples = 2\nvalue = [1, 1]"] ;
1114 -> 1116 ;
1117 [label="gini = 0.0\nsamples = 1\nvalue = [1, 0]"] ;
1116 -> 1117 ;
1118 [label="gini = 0.0\nsamples = 1\nvalue = [0, 1]"] ;
1116 -> 1118 ;
1119 [label="X[50] <= 0.5\ngini = 0.267\nsamples = 101\nvalue = [85, 16]"] ;
969 -> 1119 ;
1120 [label="X[59] <= 0.5\ngini = 0.454\nsamples = 23\nvalue = [15, 8]"] ;
1119 -> 1120 ;
1121 [label="X[4] <= 0.617\ngini = 0.32\nsamples = 5\nvalue = [1, 4]"] ;
1120 -> 1121 ;
1122 [label="gini = 0.0\nsamples = 4\nvalue = [0, 4]"] ;
1121 -> 1122 ;
1123 [label="gini = 0.0\nsamples = 1\nvalue = [1, 0]"] ;
1121 -> 1123 ;
1124 [label="X[38] <= 0.5\ngini = 0.346\nsamples = 18\nvalue = [14, 4]"] ;
1120 -> 1124 ;
1125 [label="X[3] <= 0.387\ngini = 0.219\nsamples = 16\nvalue = [14, 2]"] ;
1124 -> 1125 ;
1126 [label="X[51] <= 0.5\ngini = 0.124\nsamples = 15\nvalue = [14, 1]"] ;
1125 -> 1126 ;
1127 [label="gini = 0.0\nsamples = 12\nvalue = [12, 0]"] ;
1126 -> 1127 ;
1128 [label="X[23] <= 0.5\ngini = 0.444\nsamples = 3\nvalue = [2, 1]"] ;
1126 -> 1128 ;
1129 [label="gini = 0.0\nsamples = 2\nvalue = [2, 0]"] ;
1128 -> 1129 ;
1130 [label="gini = 0.0\nsamples = 1\nvalue = [0, 1]"] ;
1128 -> 1130 ;
1131 [label="gini = 0.0\nsamples = 1\nvalue = [0, 1]"] ;
1125 -> 1131 ;
1132 [label="gini = 0.0\nsamples = 2\nvalue = [0, 2]"] ;
1124 -> 1132 ;
1133 [label="X[47] <= 0.5\ngini = 0.184\nsamples = 78\nvalue = [70, 8]"] ;
1119 -> 1133 ;
1134 [label="X[0] <= 0.555\ngini = 0.165\nsamples = 77\nvalue = [70, 7]"] ;
1133 -> 1134 ;
1135 [label="X[39] <= 0.5\ngini = 0.273\nsamples = 43\nvalue = [36, 7]"] ;
1134 -> 1135 ;
1136 [label="X[1] <= 0.5\ngini = 0.245\nsamples = 42\nvalue = [36, 6]"] ;
1135 -> 1136 ;
1137 [label="gini = 0.0\nsamples = 14\nvalue = [14, 0]"] ;
1136 -> 1137 ;
1138 [label="X[4] <= 0.474\ngini = 0.337\nsamples = 28\nvalue = [22, 6]"] ;
1136 -> 1138 ;
1139 [label="X[41] <= 0.5\ngini = 0.142\nsamples = 13\nvalue = [12, 1]"] ;
1138 -> 1139 ;
1140 [label="gini = 0.0\nsamples = 12\nvalue = [12, 0]"] ;
1139 -> 1140 ;
1141 [label="gini = 0.0\nsamples = 1\nvalue = [0, 1]"] ;
1139 -> 1141 ;
1142 [label="X[35] <= 0.5\ngini = 0.444\nsamples = 15\nvalue = [10, 5]"] ;
1138 -> 1142 ;
1143 [label="X[0] <= 0.514\ngini = 0.408\nsamples = 14\nvalue = [10, 4]"] ;
1142 -> 1143 ;
1144 [label="gini = 0.0\nsamples = 5\nvalue = [5, 0]"] ;
1143 -> 1144 ;
1145 [label="X[4] <= 0.49\ngini = 0.494\nsamples = 9\nvalue = [5, 4]"] ;
1143 -> 1145 ;
1146 [label="gini = 0.0\nsamples = 2\nvalue = [2, 0]"] ;
1145 -> 1146 ;
1147 [label="X[32] <= 0.5\ngini = 0.49\nsamples = 7\nvalue = [3, 4]"] ;
1145 -> 1147 ;
1148 [label="X[42] <= 0.5\ngini = 0.444\nsamples = 6\nvalue = [2, 4]"] ;
1147 -> 1148 ;
1149 [label="X[31] <= 0.5\ngini = 0.32\nsamples = 5\nvalue = [1, 4]"] ;
1148 -> 1149 ;
1150 [label="gini = 0.0\nsamples = 4\nvalue = [0, 4]"] ;
1149 -> 1150 ;
1151 [label="gini = 0.0\nsamples = 1\nvalue = [1, 0]"] ;
1149 -> 1151 ;
1152 [label="gini = 0.0\nsamples = 1\nvalue = [1, 0]"] ;
1148 -> 1152 ;
1153 [label="gini = 0.0\nsamples = 1\nvalue = [1, 0]"] ;
1147 -> 1153 ;
1154 [label="gini = 0.0\nsamples = 1\nvalue = [0, 1]"] ;
1142 -> 1154 ;
1155 [label="gini = 0.0\nsamples = 1\nvalue = [0, 1]"] ;
1135 -> 1155 ;
1156 [label="gini = 0.0\nsamples = 34\nvalue = [34, 0]"] ;
1134 -> 1156 ;
1157 [label="gini = 0.0\nsamples = 1\nvalue = [0, 1]"] ;
1133 -> 1157 ;
1158 [label="gini = 0.0\nsamples = 1\nvalue = [0, 1]"] ;
934 -> 1158 ;
1159 [label="X[4] <= 0.857\ngini = 0.197\nsamples = 840\nvalue = [747, 93]"] ;
933 -> 1159 ;
1160 [label="X[49] <= 0.5\ngini = 0.191\nsamples = 832\nvalue = [743, 89]"] ;
1159 -> 1160 ;
1161 [label="X[0] <= 0.404\ngini = 0.189\nsamples = 831\nvalue = [743, 88]"] ;
1160 -> 1161 ;
1162 [label="X[45] <= 0.5\ngini = 0.162\nsamples = 630\nvalue = [574, 56]"] ;
1161 -> 1162 ;
1163 [label="X[4] <= 0.454\ngini = 0.152\nsamples = 615\nvalue = [564, 51]"] ;
1162 -> 1163 ;
1164 [label="X[5] <= 0.5\ngini = 0.099\nsamples = 191\nvalue = [181, 10]"] ;
1163 -> 1164 ;
1165 [label="X[0] <= 0.281\ngini = 0.092\nsamples = 187\nvalue = [178, 9]"] ;
1164 -> 1165 ;
1166 [label="X[0] <= 0.24\ngini = 0.137\nsamples = 95\nvalue = [88, 7]"] ;
1165 -> 1166 ;
1167 [label="X[4] <= 0.413\ngini = 0.059\nsamples = 66\nvalue = [64, 2]"] ;
1166 -> 1167 ;
1168 [label="X[0] <= 0.171\ngini = 0.375\nsamples = 4\nvalue = [3, 1]"] ;
1167 -> 1168 ;
1169 [label="gini = 0.0\nsamples = 1\nvalue = [0, 1]"] ;
1168 -> 1169 ;
1170 [label="gini = 0.0\nsamples = 3\nvalue = [3, 0]"] ;
1168 -> 1170 ;
1171 [label="X[46] <= 0.5\ngini = 0.032\nsamples = 62\nvalue = [61, 1]"] ;
1167 -> 1171 ;
1172 [label="gini = 0.0\nsamples = 53\nvalue = [53, 0]"] ;
1171 -> 1172 ;
1173 [label="X[0] <= 0.185\ngini = 0.198\nsamples = 9\nvalue = [8, 1]"] ;
1171 -> 1173 ;
1174 [label="X[61] <= 0.5\ngini = 0.5\nsamples = 2\nvalue = [1, 1]"] ;
1173 -> 1174 ;
1175 [label="gini = 0.0\nsamples = 1\nvalue = [1, 0]"] ;
1174 -> 1175 ;
1176 [label="gini = 0.0\nsamples = 1\nvalue = [0, 1]"] ;
1174 -> 1176 ;
1177 [label="gini = 0.0\nsamples = 7\nvalue = [7, 0]"] ;
1173 -> 1177 ;
1178 [label="X[9] <= 0.5\ngini = 0.285\nsamples = 29\nvalue = [24, 5]"] ;
1166 -> 1178 ;
1179 [label="X[27] <= 0.5\ngini = 0.245\nsamples = 28\nvalue = [24, 4]"] ;
1178 -> 1179 ;
1180 [label="X[46] <= 0.5\ngini = 0.426\nsamples = 13\nvalue = [9, 4]"] ;
1179 -> 1180 ;
1181 [label="X[41] <= 0.5\ngini = 0.375\nsamples = 12\nvalue = [9, 3]"] ;
1180 -> 1181 ;
1182 [label="X[37] <= 0.5\ngini = 0.298\nsamples = 11\nvalue = [9, 2]"] ;
1181 -> 1182 ;
1183 [label="X[4] <= 0.423\ngini = 0.198\nsamples = 9\nvalue = [8, 1]"] ;
1182 -> 1183 ;
1184 [label="X[60] <= 0.5\ngini = 0.5\nsamples = 2\nvalue = [1, 1]"] ;
1183 -> 1184 ;
1185 [label="gini = 0.0\nsamples = 1\nvalue = [0, 1]"] ;
1184 -> 1185 ;
1186 [label="gini = 0.0\nsamples = 1\nvalue = [1, 0]"] ;
1184 -> 1186 ;
1187 [label="gini = 0.0\nsamples = 7\nvalue = [7, 0]"] ;
1183 -> 1187 ;
1188 [label="X[28] <= 0.5\ngini = 0.5\nsamples = 2\nvalue = [1, 1]"] ;
1182 -> 1188 ;
1189 [label="gini = 0.0\nsamples = 1\nvalue = [1, 0]"] ;
1188 -> 1189 ;
1190 [label="gini = 0.0\nsamples = 1\nvalue = [0, 1]"] ;
1188 -> 1190 ;
1191 [label="gini = 0.0\nsamples = 1\nvalue = [0, 1]"] ;
1181 -> 1191 ;
1192 [label="gini = 0.0\nsamples = 1\nvalue = [0, 1]"] ;
1180 -> 1192 ;
1193 [label="gini = 0.0\nsamples = 15\nvalue = [15, 0]"] ;
1179 -> 1193 ;
1194 [label="gini = 0.0\nsamples = 1\nvalue = [0, 1]"] ;
1178 -> 1194 ;
1195 [label="X[52] <= 0.5\ngini = 0.043\nsamples = 92\nvalue = [90, 2]"] ;
1165 -> 1195 ;
1196 [label="X[33] <= 0.5\ngini = 0.023\nsamples = 85\nvalue = [84, 1]"] ;
1195 -> 1196 ;
1197 [label="gini = 0.0\nsamples = 78\nvalue = [78, 0]"] ;
1196 -> 1197 ;
1198 [label="X[38] <= 0.5\ngini = 0.245\nsamples = 7\nvalue = [6, 1]"] ;
1196 -> 1198 ;
1199 [label="gini = 0.0\nsamples = 5\nvalue = [5, 0]"] ;
1198 -> 1199 ;
1200 [label="X[61] <= 0.5\ngini = 0.5\nsamples = 2\nvalue = [1, 1]"] ;
1198 -> 1200 ;
1201 [label="gini = 0.0\nsamples = 1\nvalue = [1, 0]"] ;
1200 -> 1201 ;
1202 [label="gini = 0.0\nsamples = 1\nvalue = [0, 1]"] ;
1200 -> 1202 ;
1203 [label="X[4] <= 0.444\ngini = 0.245\nsamples = 7\nvalue = [6, 1]"] ;
1195 -> 1203 ;
1204 [label="gini = 0.0\nsamples = 1\nvalue = [0, 1]"] ;
1203 -> 1204 ;
1205 [label="gini = 0.0\nsamples = 6\nvalue = [6, 0]"] ;
1203 -> 1205 ;
1206 [label="X[34] <= 0.5\ngini = 0.375\nsamples = 4\nvalue = [3, 1]"] ;
1164 -> 1206 ;
1207 [label="gini = 0.0\nsamples = 3\nvalue = [3, 0]"] ;
1206 -> 1207 ;
1208 [label="gini = 0.0\nsamples = 1\nvalue = [0, 1]"] ;
1206 -> 1208 ;
1209 [label="X[0] <= 0.295\ngini = 0.175\nsamples = 424\nvalue = [383, 41]"] ;
1163 -> 1209 ;
1210 [label="X[38] <= 0.5\ngini = 0.129\nsamples = 245\nvalue = [228, 17]"] ;
1209 -> 1210 ;
1211 [label="X[19] <= 0.5\ngini = 0.095\nsamples = 199\nvalue = [189, 10]"] ;
1210 -> 1211 ;
1212 [label="X[31] <= 0.5\ngini = 0.057\nsamples = 171\nvalue = [166, 5]"] ;
1211 -> 1212 ;
1213 [label="X[44] <= 0.5\ngini = 0.047\nsamples = 167\nvalue = [163, 4]"] ;
1212 -> 1213 ;
1214 [label="X[0] <= 0.212\ngini = 0.036\nsamples = 162\nvalue = [159, 3]"] ;
1213 -> 1214 ;
1215 [label="X[4] <= 0.51\ngini = 0.086\nsamples = 67\nvalue = [64, 3]"] ;
1214 -> 1215 ;
1216 [label="X[46] <= 0.5\ngini = 0.198\nsamples = 27\nvalue = [24, 3]"] ;
1215 -> 1216 ;
1217 [label="X[9] <= 0.5\ngini = 0.091\nsamples = 21\nvalue = [20, 1]"] ;
1216 -> 1217 ;
1218 [label="gini = 0.0\nsamples = 18\nvalue = [18, 0]"] ;
1217 -> 1218 ;
1219 [label="X[37] <= 0.5\ngini = 0.444\nsamples = 3\nvalue = [2, 1]"] ;
1217 -> 1219 ;
1220 [label="gini = 0.0\nsamples = 2\nvalue = [2, 0]"] ;
1219 -> 1220 ;
1221 [label="gini = 0.0\nsamples = 1\nvalue = [0, 1]"] ;
1219 -> 1221 ;
1222 [label="X[1] <= 0.633\ngini = 0.444\nsamples = 6\nvalue = [4, 2]"] ;
1216 -> 1222 ;
1223 [label="X[0] <= 0.185\ngini = 0.32\nsamples = 5\nvalue = [4, 1]"] ;
1222 -> 1223 ;
1224 [label="X[0] <= 0.171\ngini = 0.444\nsamples = 3\nvalue = [2, 1]"] ;
1223 -> 1224 ;
1225 [label="gini = 0.0\nsamples = 1\nvalue = [1, 0]"] ;
1224 -> 1225 ;
1226 [label="gini = 0.5\nsamples = 2\nvalue = [1, 1]"] ;
1224 -> 1226 ;
1227 [label="gini = 0.0\nsamples = 2\nvalue = [2, 0]"] ;
1223 -> 1227 ;
1228 [label="gini = 0.0\nsamples = 1\nvalue = [0, 1]"] ;
1222 -> 1228 ;
1229 [label="gini = 0.0\nsamples = 40\nvalue = [40, 0]"] ;
1215 -> 1229 ;
1230 [label="gini = 0.0\nsamples = 95\nvalue = [95, 0]"] ;
1214 -> 1230 ;
1231 [label="X[20] <= 0.5\ngini = 0.32\nsamples = 5\nvalue = [4, 1]"] ;
1213 -> 1231 ;
1232 [label="gini = 0.0\nsamples = 4\nvalue = [4, 0]"] ;
1231 -> 1232 ;
1233 [label="gini = 0.0\nsamples = 1\nvalue = [0, 1]"] ;
1231 -> 1233 ;
1234 [label="X[37] <= 0.5\ngini = 0.375\nsamples = 4\nvalue = [3, 1]"] ;
1212 -> 1234 ;
1235 [label="gini = 0.0\nsamples = 3\nvalue = [3, 0]"] ;
1234 -> 1235 ;
1236 [label="gini = 0.0\nsamples = 1\nvalue = [0, 1]"] ;
1234 -> 1236 ;
1237 [label="X[56] <= 0.5\ngini = 0.293\nsamples = 28\nvalue = [23, 5]"] ;
1211 -> 1237 ;
1238 [label="X[28] <= 0.5\ngini = 0.252\nsamples = 27\nvalue = [23, 4]"] ;
1237 -> 1238 ;
1239 [label="X[4] <= 0.704\ngini = 0.117\nsamples = 16\nvalue = [15, 1]"] ;
1238 -> 1239 ;
1240 [label="gini = 0.0\nsamples = 14\nvalue = [14, 0]"] ;
1239 -> 1240 ;
1241 [label="X[42] <= 0.5\ngini = 0.5\nsamples = 2\nvalue = [1, 1]"] ;
1239 -> 1241 ;
1242 [label="gini = 0.0\nsamples = 1\nvalue = [1, 0]"] ;
1241 -> 1242 ;
1243 [label="gini = 0.0\nsamples = 1\nvalue = [0, 1]"] ;
1241 -> 1243 ;
1244 [label="X[0] <= 0.267\ngini = 0.397\nsamples = 11\nvalue = [8, 3]"] ;
1238 -> 1244 ;
1245 [label="X[4] <= 0.51\ngini = 0.32\nsamples = 10\nvalue = [8, 2]"] ;
1244 -> 1245 ;
1246 [label="X[46] <= 0.5\ngini = 0.444\nsamples = 6\nvalue = [4, 2]"] ;
1245 -> 1246 ;
1247 [label="X[0] <= 0.199\ngini = 0.32\nsamples = 5\nvalue = [4, 1]"] ;
1246 -> 1247 ;
1248 [label="gini = 0.0\nsamples = 1\nvalue = [0, 1]"] ;
1247 -> 1248 ;
1249 [label="gini = 0.0\nsamples = 4\nvalue = [4, 0]"] ;
1247 -> 1249 ;
1250 [label="gini = 0.0\nsamples = 1\nvalue = [0, 1]"] ;
1246 -> 1250 ;
1251 [label="gini = 0.0\nsamples = 4\nvalue = [4, 0]"] ;
1245 -> 1251 ;
1252 [label="gini = 0.0\nsamples = 1\nvalue = [0, 1]"] ;
1244 -> 1252 ;
1253 [label="gini = 0.0\nsamples = 1\nvalue = [0, 1]"] ;
1237 -> 1253 ;
1254 [label="X[4] <= 0.628\ngini = 0.258\nsamples = 46\nvalue = [39, 7]"] ;
1210 -> 1254 ;
1255 [label="X[7] <= 0.5\ngini = 0.236\nsamples = 44\nvalue = [38, 6]"] ;
1254 -> 1255 ;
1256 [label="gini = 0.0\nsamples = 10\nvalue = [10, 0]"] ;
1255 -> 1256 ;
1257 [label="X[33] <= 0.5\ngini = 0.291\nsamples = 34\nvalue = [28, 6]"] ;
1255 -> 1257 ;
1258 [label="X[0] <= 0.171\ngini = 0.257\nsamples = 33\nvalue = [28, 5]"] ;
1257 -> 1258 ;
1259 [label="X[4] <= 0.526\ngini = 0.5\nsamples = 2\nvalue = [1, 1]"] ;
1258 -> 1259 ;
1260 [label="gini = 0.0\nsamples = 1\nvalue = [1, 0]"] ;
1259 -> 1260 ;
1261 [label="gini = 0.0\nsamples = 1\nvalue = [0, 1]"] ;
1259 -> 1261 ;
1262 [label="X[50] <= 0.5\ngini = 0.225\nsamples = 31\nvalue = [27, 4]"] ;
1258 -> 1262 ;
1263 [label="gini = 0.0\nsamples = 8\nvalue = [8, 0]"] ;
1262 -> 1263 ;
1264 [label="X[20] <= 0.5\ngini = 0.287\nsamples = 23\nvalue = [19, 4]"] ;
1262 -> 1264 ;
1265 [label="X[0] <= 0.267\ngini = 0.245\nsamples = 21\nvalue = [18, 3]"] ;
1264 -> 1265 ;
1266 [label="X[32] <= 0.5\ngini = 0.124\nsamples = 15\nvalue = [14, 1]"] ;
1265 -> 1266 ;
1267 [label="X[60] <= 0.5\ngini = 0.32\nsamples = 5\nvalue = [4, 1]"] ;
1266 -> 1267 ;
1268 [label="gini = 0.0\nsamples = 2\nvalue = [2, 0]"] ;
1267 -> 1268 ;
1269 [label="X[0] <= 0.199\ngini = 0.444\nsamples = 3\nvalue = [2, 1]"] ;
1267 -> 1269 ;
